8371 32
4802 0.55105895 0.18139237 0.038039155 0.31681392 -0.18404886 -0.3010859 -0.022157626 -0.04582707 0.5962255 0.5158209 -0.5652461 0.64814836 -0.61006725 0.15523191 -0.30114898 0.2798732 0.57299286 -0.21157952 -0.6095737 0.5543084 0.10582854 -0.13436174 0.696985 0.29053208 -0.16828236 0.46177956 0.51418847 -0.39921755 0.50121295 0.20771873 -0.3637039 -0.15758507
3208 0.6699418 0.01835687 -0.072423846 0.27761918 -0.09749295 -0.33875057 -0.21859077 0.10100722 0.6475211 0.38634008 -0.5277008 0.70776486 -0.5073835 0.3813651 -0.5204408 0.53838205 0.493625 -0.29623592 -0.55873215 0.5019092 0.078309834 -0.24368492 0.8785069 0.12247818 -0.02167342 0.2936327 0.47457194 -0.3858154 0.29326057 0.16239063 -0.33889225 -0.32257378
3745 0.8594558 0.17559928 0.109656036 0.33452365 -0.091151655 -0.06634865 -0.116886556 0.0768016 0.6305979 0.45054874 -0.5383302 0.9271633 -0.66691345 0.3795936 -0.2492719 0.6210736 0.5079159 -0.14701347 -0.3273881 0.35060188 0.15347135 -0.13433222 0.902751 0.21632645 -0.09930155 0.25828505 0.6840126 -0.15655294 0.40120733 0.3249049 -0.35132822 -0.241293
5239 0.7195493 0.1996281 0.036118213 0.37504983 0.056418143 -0.26902068 -0.018031957 0.054772083 0.4724103 0.5837133 -0.6753824 0.78804696 -0.5882826 0.16490743 -0.13864434 0.6053269 0.6069641 -0.12635976 -0.43692642 0.46524814 0.22436619 -0.12535974 0.7299391 0.32529405 0.091599315 0.2428232 0.6136953 -0.26385295 0.5635675 -0.0128272725 -0.32936656 -0.13958937
3653 0.68649065 0.14024727 0.1127114 0.15719612 -0.15231578 -0.19564009 -0.1268921 0.08803816 0.54355603 0.5030653 -0.6528793 0.82957083 -0.60439104 0.24848673 -0.26913515 0.6862823 0.42341068 -0.08046991 -0.56019694 0.6024796 0.17074507 0.02699518 0.70102996 0.21815477 -0.01349732 0.35268086 0.51152575 -0.22035822 0.54189855 -0.030365068 -0.33287185 -0.23562126
7081 0.6331725 0.12969996 0.042222217 0.36759982 0.029034112 -0.14422421 -0.045045625 -0.06183659 0.7965555 0.27624455 -0.6325676 0.77466756 -0.66676104 0.18126914 -0.28198594 0.38665888 0.52155465 0.021785842 -0.53816944 0.5301033 0.20849861 -0.21884257 0.7347145 0.3867354 0.1298333 0.266077 0.4656542 -0.29076475 0.7271568 0.10826461 -0.30432242 -0.40087315
1753 0.42868263 -0.22622828 0.39110425 0.23542307 -0.34118223 0.08363471 -0.2824474 0.2840819 1.3683723 0.43560222 -0.18833128 0.16131324 -0.60157 0.47729582 -0.51511115 -0.13729274 0.4440006 -0.11093453 -0.07887072 0.28185704 0.04612924 -0.26411828 0.13815026 0.09840292 0.044163857 -0.18887047 0.21335621 0.04509242 0.5952078 -0.4052025 -1.0508286 0.24623932
4972 0.53500265 0.2471277 0.11011152 0.280014 -0.037400827 -0.3064627 -0.07213065 -0.04304585 0.5305936 0.46693626 -0.8040333 0.49437967 -0.66134644 0.2893486 -0.12713946 0.3907063 0.55415493 -0.32649451 -0.4560493 0.5433086 0.4133016 -0.2668722 0.8532318 0.23004007 0.059227202 0.33150944 0.7509212 -0.53764725 0.5972006 -0.029033653 -0.32176432 -0.081820294
6333 0.70063156 0.09512647 0.12428873 0.24790108 -0.01919165 -0.24660239 -0.043854367 0.10721335 0.78059167 0.30126575 -0.55082935 0.8978412 -0.57373697 0.2533452 -0.40046176 0.66353345 0.4735963 -0.24627489 -0.4466907 0.5018617 0.13019142 -0.25336936 0.8847057 0.1501119 -0.2842303 0.14983241 0.5541776 -0.22925611 0.46935302 0.23368573 -0.3044155 -0.25105223
3876 0.6084987 -0.93978864 0.08447399 -0.12318203 0.008922981 -0.79590535 -0.101574466 -0.18666038 0.5945007 0.74809825 -0.56973624 -0.12064374 -0.44464445 0.3335265 -0.28630427 -0.6878473 -0.06785058 0.7761677 -0.21155062 -0.4646983 0.4391283 -0.14570895 -0.40468365 0.2932318 -0.13047835 -0.2378269 -0.5009995 -0.08148513 0.4726569 -0.041996203 -0.7300816 0.21054699
3475 0.868253 0.1020094 0.09564908 0.37034294 -0.087856054 -0.24998191 -0.15467037 0.029973436 0.680217 0.4342658 -0.50139695 1.0102193 -0.6630008 0.33616218 -0.3478536 0.63806045 0.55730337 -0.2940354 -0.31554863 0.46991158 0.3054695 -0.20157789 0.85022455 0.14807007 -0.07852264 0.2082139 0.6155782 -0.15694179 0.39877933 0.34977856 -0.3180079 -0.17884639
830 0.7185675 0.14235556 -0.089429945 0.19372131 -0.12565906 -0.20142457 -0.08785141 0.04946892 0.9645614 0.3285462 -0.5088641 0.7512804 -0.5739696 0.2723609 -0.18260524 0.52883905 0.5452141 -0.18165876 -0.45214912 0.5627635 0.08172004 -0.16770764 0.95027864 0.28271657 -0.07650975 0.18150438 0.5883083 -0.15210886 0.4288864 0.16988969 -0.5659438 -0.26867348
5149 0.9632674 0.13372654 0.122427024 0.3127628 -0.343087 -0.18889341 -0.24137451 0.066231474 0.8014842 0.37615937 -0.48824018 0.8779458 -0.49716997 0.3015626 -0.20020153 0.7876294 0.3508904 -0.1969969 -0.31873852 0.58125776 0.1416783 -0.12027365 0.84311354 0.19272754 -0.12922727 0.46775556 0.7156649 -0.16859527 0.12718357 0.4349915 -0.39086437 -0.36321297
7148 0.5306193 -0.028489131 0.12863064 0.35272658 -0.20332734 -0.18139479 0.14021203 -0.12135487 0.6879502 0.5135971 -0.6219591 0.6241503 -0.7842234 0.36314 -0.46958596 0.58093053 0.53701544 -0.2337587 -0.5525461 0.49178272 0.24729891 0.09974779 0.83561766 0.09985228 -0.025723321 0.44204745 0.65669394 -0.30687505 0.46732026 0.32196555 -0.2804567 -0.14509246
437 0.3787416 -0.7075761 0.1864404 -0.04470767 -0.28830168 -0.742603 -0.24436277 0.11755682 0.9929741 0.87558126 -0.45809412 -0.13992381 -0.3849928 0.06435753 -0.38372642 -0.54323 0.4223636 0.6386754 0.0785785 -0.44180247 0.5522083 -0.2513881 -0.51572144 0.29528952 -0.5033622 -0.15020639 0.007956005 0.0787828 0.39804158 -0.13479568 -0.7176343 0.0095277885
4817 0.8620044 0.0396999 0.028501995 0.33843252 -0.34122396 -0.15403776 -0.35181975 -0.044014264 0.83397436 0.24950913 -0.38688886 0.8247921 -0.55817586 0.37812522 -0.4235498 0.7161594 0.35248923 -0.26291016 -0.21094677 0.5259179 0.11292789 -0.15000391 1.05514 0.2596634 -0.18887678 0.29992786 0.7307584 -0.25673306 0.19078143 0.48554924 -0.4461659 -0.31993917
3099 0.5289157 -0.5268293 0.065231726 -0.07457875 -0.42490396 -0.35132918 -0.42272806 0.40588257 1.2434322 0.83495677 -0.54599273 0.11963072 -0.4977408 -0.031245682 -0.46779034 -0.37783644 0.17958283 0.698678 0.07102736 -0.6020743 0.2651874 -0.21924816 -0.5761364 -0.12090673 -0.51662564 -0.09709013 -0.21816118 0.09697079 0.48113397 -0.13095166 -0.64063823 0.17752258
5170 0.63467807 -0.6606007 0.064480394 -0.29711425 -0.2389697 -0.25088897 -0.24140504 0.21880567 0.96777505 0.77231425 -0.404311 0.18096456 -0.5225723 -0.07994579 -0.49799898 -0.20962527 0.18502311 0.7475247 -0.04492261 -0.5864626 0.028381484 -0.43032587 -0.49879247 -0.13988744 -0.52966154 -0.13627736 -0.098168 0.5260454 0.39173144 -0.1946357 -0.5672624 0.09178688
5998 0.35362256 -0.6096968 0.20307365 -0.14711247 -0.27290165 -0.35066786 -0.11105565 -0.10423713 1.2181123 0.9004579 -0.48315942 -0.06739414 -0.19327442 -0.17432293 -0.27000147 -0.37131327 0.0126008205 0.72892654 0.24766126 -0.49846357 0.25851044 -0.3344162 -0.5332627 0.26447842 -0.47524816 -0.22894904 0.11066534 0.35563734 0.71750164 -0.41212404 -0.55198723 0.16532265
2931 0.7024393 0.30235553 -0.27168316 0.5490679 -0.43355674 -0.066689566 0.008871733 -0.09090851 0.7775694 0.5935528 -0.6989189 0.9246062 -0.5250937 0.30793464 -0.20697197 0.39892364 0.6648879 -0.069692686 -0.27252653 0.56873643 0.29362252 0.17562042 0.8834757 0.30679354 0.36727622 0.25042778 0.59208083 -0.29362673 0.67528003 0.12263459 -0.19731686 -0.18112244
6869 0.7754793 -0.97672653 0.14045057 -0.093268156 -0.056652334 -0.7088031 0.071715534 -0.13389865 0.89687693 0.8680261 -0.32663605 -0.051021673 -0.41694385 0.2530068 0.0931853 -0.38528118 -0.3315371 0.7674161 -0.19210905 -0.534222 0.57170504 -0.082144305 -0.1945654 0.36875844 -0.41343594 -0.28961602 -0.3841024 -0.109760754 0.34289223 -0.15971531 -0.65670437 0.57051474
1550 0.7020016 0.28268358 -0.2749267 0.63475204 -0.31636703 -0.17507488 0.2852785 -0.09432043 0.57299376 0.42129368 -0.7684955 0.89623046 -0.6198567 0.76026225 -0.4998931 0.4685325 0.50895643 0.13181642 -0.26029962 0.57573533 0.21091291 0.054140627 0.6979763 0.17150566 0.3751463 0.25682974 0.64034957 -0.27148336 0.40584138 0.29130062 -0.33678162 -0.114546254
7960 0.77655876 -0.5933985 0.3586601 -0.29689378 0.11849695 -0.44349822 -0.28663778 0.07235338 0.90352243 0.9834558 -1.0626673 -0.7244484 -0.26516753 -0.017112209 -0.424682 -0.36241168 0.3376495 -0.030887408 0.21803324 0.22057836 0.35687488 -0.0880254 -0.25754976 -0.25797206 -0.4905136 0.23066126 0.13574521 0.3925769 0.1737533 -0.084129915 -0.56738573 -0.3522796
7797 0.35147005 0.15328574 0.16270891 0.12488729 -0.20422275 -0.23211381 -0.19834165 -0.15438528 0.7213619 0.30614176 -0.6107839 0.8417536 -0.4780092 0.35170507 -0.13187617 0.19104308 0.33468854 0.25991368 -0.5497458 0.80200255 0.28080148 0.0015646381 0.8220629 0.38174596 0.1346999 0.40281892 0.6213269 -0.58789754 0.76394767 -0.14688778 -0.36971095 -0.29267335
3835 0.53257877 -1.0292343 -0.62487817 -0.057403546 -0.17847052 -0.73673826 0.15742898 -0.13004503 1.1493753 0.9610422 -0.20929806 -0.029419115 -0.27098095 0.48860735 0.08102799 -0.5067227 -0.27145532 0.88877016 0.015766796 -0.4174041 0.71333736 -0.11931109 0.03882391 0.49607855 -0.33653438 -0.39488274 -0.29705414 0.18723217 0.18539713 0.11170486 -0.45351258 0.46302202
6212 0.38183254 -0.8718029 0.123922385 -0.15992479 -0.47670606 -0.80447704 -0.1812939 -0.03456506 0.668185 0.86027074 -0.3946749 -0.32423785 -0.33658716 0.14280032 -0.69608164 -0.37232536 0.14892411 0.5887908 0.06701584 -0.1672053 0.18399684 -0.22384992 -0.5965777 0.41494453 -0.20665887 -0.1520827 -0.0867393 0.09324363 0.23847064 -0.086902395 -0.7138437 0.31232625
1620 0.8218816 0.29766518 -0.14718543 0.42425248 -0.42365253 0.073493056 0.13757578 -0.04359198 0.76459694 0.5241165 -0.660171 0.99516493 -0.5151061 0.31422028 -0.36191216 0.4956341 0.68239045 -0.16958913 -0.26257396 0.40976855 0.22241816 0.11871299 0.88654953 0.31228444 0.35271898 0.13988335 0.55700624 -0.09915614 0.5519717 0.19420564 -0.23412803 -0.23684429
3194 0.7686911 0.06045595 -0.035207905 0.24780336 -0.009315985 -0.029566433 -0.17157313 -0.1567621 0.6434676 0.57008165 -0.48928744 0.87827784 -0.6081921 0.34684804 -0.2914459 0.5455346 0.33492887 -0.28009242 -0.4767003 0.47395137 0.37949994 -0.18868802 0.8672734 0.18658516 0.13110892 0.37205398 0.68028015 -0.19422786 0.66326606 -0.0033264041 -0.42211 -0.38431856
168 0.9262946 0.12032302 0.039726716 0.58080006 -0.33060345 -0.036218192 0.24279429 0.06652943 0.63919556 0.37412483 -0.7221731 0.6737785 -0.58172226 0.34008262 -0.10279384 0.5387116 0.5762672 -0.1881916 -0.32672736 0.44409704 0.048115816 -0.1602035 0.67788255 0.3166476 0.12472993 0.3061234 0.62253743 -0.22188312 0.610142 0.17810968 -0.168488 -0.102113135
7878 0.42275503 -0.6236952 0.25490716 -0.13110648 -0.23184063 -0.46463525 0.040727794 0.08846264 1.0283633 0.93667257 -0.40502974 0.00073984294 -0.30458087 0.10951409 -0.6564195 -0.5226588 0.25718847 0.3907314 -0.06763852 -0.5436805 0.44416723 -0.20032622 -0.42853606 0.27895015 -0.5297664 -0.09107043 -0.16353488 0.3903945 0.39401957 -0.024692867 -0.6984821 0.37086573
2122 0.614669 0.14716241 -0.14198029 0.07424059 -0.13790272 -0.07981862 -0.039635994 -0.16954276 0.904155 0.2321955 -0.4306969 0.7614309 -0.6361088 0.3464575 -0.21942925 0.6664724 0.103206135 -0.12914787 -0.20036691 0.6263985 0.14352818 -0.176505 1.0790755 0.2655197 -0.24901284 0.27389467 0.92544675 -0.17838047 0.37017256 -0.015615961 -0.4397243 -0.340248
629 0.7725412 0.28457633 0.09913409 0.20638072 -0.19145997 -0.19025683 0.10497882 -0.07375858 0.6881163 0.4808758 -0.4546517 0.93544346 -0.7457428 0.24277648 -0.43091747 0.6176729 0.4718978 -0.17153458 -0.45298365 0.5175588 0.21067952 0.0010197263 0.90719223 0.31395292 0.0006286499 0.40757272 0.4856105 -0.24883828 0.51243544 0.28459913 -0.47200134 -0.20636623
526 0.9536293 0.005424852 0.13640147 0.23625098 -0.10251199 -0.20761858 -0.03552999 -0.099079736 0.66973567 0.5275142 -0.4889859 0.87323487 -0.68623364 0.24806261 -0.416974 0.59237874 0.50400347 -0.33479008 -0.44287464 0.54352903 0.11241414 -0.04799767 0.8720574 0.20849927 0.09748658 0.19962852 0.53097147 -0.18670827 0.48541468 0.19714783 -0.25474858 -0.1741901
5269 0.6367102 -0.42596242 0.11338971 -0.045939535 -0.4592679 -0.3744376 -0.25878605 0.039232038 1.1338476 0.86678994 -0.4177041 -0.10088479 -0.33690476 0.0020434344 -0.39160296 -0.44304398 0.11473728 0.7762551 0.190374 -0.39606947 0.25373712 -0.31818604 -0.5840014 0.12327589 -0.37590244 -0.12003145 -0.1473034 0.25612774 0.45702854 -0.17530246 -0.621118 0.1179803
6118 0.6992417 -0.08707064 -0.15794031 0.011218187 -0.014724822 0.1016742 0.10987201 0.028485062 0.7325315 0.30518594 -0.67316645 0.5499694 -0.20168062 -0.2632609 -0.95146513 0.6150091 0.52609646 -0.35827222 -0.3668638 0.57731885 -0.10548451 -0.3094021 0.42890033 0.2963409 0.076983064 0.31736672 0.28478003 -0.4087539 0.40519434 -0.082465604 -0.20540102 -0.14060856
8318 0.8806919 -0.94444114 0.032972813 -0.024601558 0.018834602 -0.7643279 0.0560605 -0.17572686 0.82600147 0.89522266 -0.27871227 -0.02045829 -0.41092017 0.31680986 -0.038704004 -0.40686953 -0.2183088 0.7308161 -0.025577206 -0.46587017 0.62234837 0.04444064 -0.2852135 0.30303767 -0.45868477 -0.33868927 -0.24668664 -0.139614 0.4280702 -0.26463303 -0.67766905 0.52633625
6396 0.42304283 0.2906622 -0.4068275 0.116237246 0.16221356 -0.040728956 -0.06258039 -0.1413529 0.39582434 0.35725856 -0.75241923 0.4104139 -0.080868125 -0.18478188 -0.9071777 0.6376851 0.6990253 -0.33300704 -0.10035859 0.44840544 0.11504289 -0.5144579 0.29309446 0.5906747 -0.22144784 -0.008024595 0.36693564 -0.20096064 0.547234 -0.4453372 -0.45756632 0.20157875
1375 0.6659883 0.030430175 0.14995681 0.2677878 -0.075838186 -0.123616986 -0.003868517 -0.14683463 0.75697106 0.35036695 -0.5925753 0.8078443 -0.5452821 0.4438196 -0.4936418 0.771345 0.34262288 -0.119208924 -0.45639995 0.633584 0.14954662 -0.03228921 0.9318526 0.21223699 -0.15517433 0.34699646 0.6865029 -0.11820033 0.27682412 0.15218858 -0.50490105 -0.27640903
1000 0.7021057 0.062535375 -0.099354275 0.3536424 -0.36890972 -0.2143292 -0.184395 0.17411603 0.75439674 0.1964153 -0.5190631 0.7648101 -0.4035023 0.48669058 -0.6068597 0.771073 0.40449232 0.118547626 -0.61750466 0.6920076 0.1499099 0.0700677 0.8477708 0.12233105 0.06757625 0.25326067 0.77038044 -0.20448941 0.09924479 0.13714081 -0.42303416 -0.21512088
5640 0.5108662 -0.49355584 0.3127465 0.30871058 -0.12019714 -0.3930459 -0.114881694 0.2945409 1.0481802 0.7966566 -0.35000265 0.25765455 -0.30911186 0.06799163 -0.4715327 -0.45025653 0.25370154 0.43478897 -0.0888648 0.044356808 0.28772658 -0.33298692 -0.5037326 0.09011429 -0.35932258 -0.22695404 0.23984604 0.25076923 0.496683 -0.069349006 -1.1178939 0.37755847
6397 1.0135658 0.51825917 -0.37905443 0.17240639 -0.3014256 -0.586266 -0.35779095 -0.6256294 0.7007153 -0.23558104 -0.4954978 0.84328455 -0.6451112 0.89735526 -0.23532116 0.4196019 0.30025896 0.25230783 -0.46484855 0.30662322 0.32027343 -0.39847603 0.8362611 -0.07471838 -0.3091263 0.5234318 0.75168055 -0.33522153 -0.11122761 0.66585934 -0.48430866 -0.07600176
4512 0.75558895 -1.1861272 -0.20195064 0.13277264 -0.15621601 -0.94288075 0.4376705 -0.16785012 0.97806966 0.8746417 -0.3136747 0.015017505 -0.19257054 0.32227623 0.06430219 -0.16456884 -0.32773995 0.9124092 0.11239487 -0.46231064 0.614845 0.09254359 -0.010480507 0.4359869 -0.41106766 -0.46026433 -0.3721822 -0.029279875 0.06673674 0.2708716 -0.36377767 0.3436681
527 0.9118839 0.1361012 -0.16561113 0.65162194 -0.1843276 -0.19885348 -0.12604077 0.094798796 0.5681951 0.5455343 -0.67742133 0.9032857 -0.4880252 0.21045028 -0.20970121 0.59673476 0.71273947 -0.33974555 -0.40593466 0.3285112 0.356143 0.09513891 0.49908113 0.21622552 0.20210952 0.16969436 0.6501915 -0.12321127 0.5209919 0.099806525 -0.31279147 -0.1026688
1958 0.8578345 0.25522768 -0.08127463 0.5551696 -0.3435567 -0.18015961 0.028082233 0.08306082 0.6877031 0.57162136 -0.63542354 1.0243537 -0.5866356 0.32690075 -0.29314014 0.42410114 0.5716068 -0.20107377 -0.2672925 0.5146942 0.35514936 0.09055638 0.9309418 0.15556455 0.2808011 0.047934275 0.4950472 -0.1468564 0.6579467 0.30713725 -0.17388853 -0.22785643
8008 1.0557452 0.18825814 -0.011764544 0.5041152 -0.3629601 -0.16669466 0.069483906 -0.05086603 0.6264331 0.33690116 -0.6862706 0.8862607 -0.5732202 0.5202876 -0.2803144 0.7411073 0.570043 -0.15734752 -0.33595204 0.45540723 0.14820525 -0.17023079 0.87017953 0.25957555 0.1597725 0.24149448 0.4656293 -0.13232875 0.3158851 0.22697179 -0.12648408 -0.2922396
6500 0.8487062 0.23387714 0.098163195 0.3532279 -0.15517856 -0.31518137 -0.14245158 -0.06806578 0.77725166 0.43183935 -0.5839475 0.9555744 -0.5032648 0.23226851 -0.45857462 0.8554881 0.6089594 -0.31411347 -0.29438037 0.56592816 0.21647732 -0.09162247 0.8759383 0.0806605 -0.1746948 0.122815154 0.6098315 -0.1292667 0.26442268 0.36218765 -0.3132638 -0.08978317
5056 0.4253273 -0.39780042 0.4608911 0.1496411 -0.09958808 -0.24745941 -0.18444695 0.20081523 1.134145 0.7398307 -0.41383356 0.15158316 -0.34795228 -0.10860315 -0.45549384 -0.34701204 0.25524902 0.348543 -0.35969663 -0.14453843 0.3393851 -0.41687727 -0.4978633 0.054336853 -0.19897193 -0.23917711 0.23877582 0.07497946 0.5125622 -0.18322933 -1.1102085 0.34614956
3265 0.78447783 -0.019497583 -0.21789938 0.18045013 -0.20351277 -0.14593776 -0.1937221 -0.008577541 0.8062318 0.38838115 -0.3545941 0.9933052 -0.458535 0.22692773 -0.41523188 0.79552627 0.48771432 -0.20279053 -0.37757358 0.64644736 0.20157953 -0.08762452 0.92458415 0.27006045 -0.11742608 0.35857856 0.8043299 -0.1928403 0.1937306 0.25823906 -0.26839632 -0.2189811
644 0.5082524 -0.6361495 0.08344275 -0.082378544 -0.34547657 -0.79708445 -0.2861859 0.32025802 0.67354786 0.73917186 -0.6650778 -0.28642902 -0.54797685 0.2526681 -0.47168472 -0.45033765 0.36208615 0.45791462 0.17058241 -0.29630527 0.42143396 -0.2329431 -0.8168411 0.18296722 -0.28011158 0.17332567 0.2534623 0.23169899 0.50272286 -0.005614707 -0.91948456 0.22903869
6833 0.5492863 -1.3639307 -0.5163975 0.21705274 -0.19874589 -0.80315685 0.5866933 0.13322201 0.6553184 0.9408361 -0.23302583 0.31785095 -0.16190179 0.20163935 0.10938335 -0.49342072 -0.845408 0.80240357 -0.1209577 -0.66692287 0.94987446 -0.099571496 0.6696598 0.41101646 -0.229149 -0.19510125 -0.29953188 -0.1614882 0.0033389665 0.5057061 -0.37678596 0.41037452
4827 0.8666062 -0.31081456 0.123328395 0.14730144 0.45319325 -0.9877197 -0.08092531 0.1418351 0.4954744 1.0815047 -1.4095005 -0.48607367 0.6118399 -0.012698527 -0.20960456 0.2479449 0.13190326 0.19765419 0.112053476 0.7151496 0.3749737 0.011371195 0.43726337 0.3666646 -0.21439351 0.15674013 0.2124413 -0.13448437 0.34126395 -0.08400074 -0.2874419 -0.4759272
7045 0.39000773 -0.63110876 0.2684035 -0.24115737 -0.15127586 -0.13712163 0.11083976 0.11777523 1.2232798 0.929206 -0.44665572 0.1148671 -0.40304452 0.20170547 -0.5560737 -0.38504362 0.06366099 0.7038121 0.12686478 -0.69747967 0.2019886 0.0011313219 -0.3777857 0.29003677 -0.70991975 -0.112245455 -0.036837995 0.40159392 0.5997067 -0.17680748 -0.51542836 0.21214792
2671 0.78961176 0.22761543 0.07712932 0.045097947 0.4465958 -0.3759152 -0.022336496 0.2801257 0.5797122 0.8721709 -1.4623228 -0.016934225 0.54638445 -0.044668008 -0.32780978 0.3800239 0.2837684 -0.27043587 -0.38480142 0.5342562 0.10152698 -0.12447572 0.28083774 0.077110015 -0.4260647 0.06920203 0.33846837 0.12200334 0.59296745 -0.51619875 -0.49205992 0.12823021
2310 1.1216762 0.40506306 0.11511987 0.67477053 -0.32849842 -0.12926652 0.0023618476 -0.12440793 0.45607075 0.54416937 -0.7886169 0.9474879 -0.5192229 0.16068077 -0.19639154 0.55147785 0.600174 -0.22522408 -0.23016699 0.4692746 0.14851011 0.054176643 0.59329903 0.25399125 0.17313342 0.154342 0.40511036 -0.17116709 0.523522 0.28387576 -0.297905 -0.0016470694
2342 0.6591335 -0.56101876 -0.09377246 0.008192772 -0.29879016 -0.40319905 -0.10176405 0.4044592 1.1059116 1.0096732 -0.38093913 0.05597426 -0.42510235 0.059435092 -0.48805368 -0.4756335 0.18399288 0.8059188 0.15666401 -0.5810458 0.20665686 -0.2541755 -0.4542648 -0.14924727 -0.48155412 -0.08554547 0.027912196 0.41799775 0.45562398 -0.26958674 -0.783853 -0.01231834
8201 0.48141226 -0.58588845 0.31979018 -0.20048104 -0.38975292 -0.36313298 -0.091042794 0.20197968 1.1493418 0.7809773 -0.44724607 -0.020142747 -0.39249164 0.09364687 -0.34856036 -0.28525403 0.19094004 0.8136727 0.0036188834 -0.47220924 0.50448036 0.06741619 -0.48902115 0.09895297 -0.39435917 -0.08711353 -0.021893099 0.22912788 0.5263968 -0.28902417 -0.7899738 0.2385687
3485 0.357555 -0.39593542 -0.22494242 -0.4082417 -0.38500968 -0.42661312 0.124741085 -0.36663717 0.87374353 0.32945672 -0.58871764 0.38017702 -0.41376698 -0.29462484 -0.5051345 -0.3463841 0.12395092 0.553661 -0.0790036 -0.13335826 -0.091708094 -0.51011086 -0.96568036 -0.39084896 -0.46333903 0.23180038 0.100063145 0.39409503 0.57463723 -0.4832181 -0.6273176 -0.17338337
4476 0.6393368 0.11463126 -0.015964821 0.27880728 -0.21549895 -0.27936396 -0.097710274 0.007294809 0.54808354 0.41936567 -0.49970853 0.7803358 -0.48351818 0.26930064 -0.39132717 0.6015552 0.63944346 -0.04102189 -0.5403848 0.67131484 0.29561928 0.08788884 0.93105054 0.2847953 0.16305736 0.19126849 0.7262004 -0.271346 0.5457416 -0.20152846 -0.46657208 0.034916893
563 0.634288 -0.46453205 0.32106644 -0.2442896 -0.5658074 -0.60460514 0.11818125 0.3826283 1.2386974 1.0254245 -0.3179089 0.03057928 -0.5079547 -0.22155479 -0.4207898 -0.54910135 -0.048890777 0.5546435 0.088514775 -0.50363827 0.19528432 0.091173224 -0.4640952 0.21873805 -0.28238666 -0.085351944 -0.057861727 0.43980035 0.31381276 -0.11828988 -0.6706513 0.27769992
598 0.43041286 -0.5270728 0.30071175 0.11079633 -0.3520666 -0.57368404 0.041268148 0.2034019 1.1417954 0.95459586 -0.39831463 -0.091659985 -0.51558787 0.043791633 -0.56903905 -0.47919467 0.23842447 0.6313876 -0.11086447 -0.4910957 0.43520376 0.12679239 -0.3024881 -0.013961194 -0.25192866 -0.027862739 -0.20690775 0.3173028 0.35794902 -0.054910064 -0.8681221 0.23550512
1131 0.9186482 -0.91930246 -0.625361 0.16218166 0.03974755 -0.9992641 0.31189963 -0.050473854 0.6923654 0.9422053 -0.5982572 -0.17136668 -0.07897931 0.45660394 -0.0011164916 -0.40636858 -0.86724627 0.9607801 -0.028237822 -0.2480679 0.5977739 0.1698759 0.7092762 0.5429253 -0.45687184 -0.49839708 -0.46422228 -0.25904968 0.19301331 -0.1198654 -0.19967853 0.38365743
4349 0.58357316 -0.5817 0.7172771 0.23231462 -0.18451236 -0.23235197 -0.20657331 0.20779319 1.0338283 0.7860344 -0.21237057 0.1999137 -0.3544694 0.07667518 -0.3997852 -0.3813719 0.048438974 0.4406833 -0.31281447 -0.10763413 0.22324795 -0.35631132 -0.42812392 0.029167164 -0.35930476 0.011704348 0.34844008 0.20156464 0.4004438 -0.1510631 -1.1314032 0.5625617
3652 0.6845914 -0.49248362 0.3704669 -0.29847386 -0.38051713 -0.6248389 0.04979364 0.24380022 1.0215007 1.1563075 -0.36574098 0.21818036 -0.6290133 -0.108623914 -0.43722767 -0.56641394 0.009090622 0.39771843 0.09797472 -0.5134992 0.3348184 0.2544696 -0.38829884 -0.13453509 -0.41674757 -0.077886984 -0.06246574 0.44423446 0.21001257 -0.26885697 -0.7789732 0.08131124
7094 0.67971677 -0.4220706 0.4045879 -0.0070484914 0.3663559 -0.95849246 0.009350904 -0.039371006 0.4594367 1.1483623 -1.5651548 -0.42919308 0.48795775 0.08227747 -0.18270709 0.2962762 -0.11808178 0.07885764 0.12894219 0.68948233 0.29353458 0.19226027 0.23473273 0.5498952 -0.055844154 0.43852875 0.39504263 -0.03478877 0.4159799 -0.2718403 -0.15060341 -0.39529514
6849 0.50053626 -0.337925 0.12385467 -0.36449555 -0.2258875 -0.06452294 -0.28915572 -0.02912824 1.1151206 0.85600215 -0.29003507 0.067887224 -0.8190252 0.1310517 -0.5782342 -0.30726898 -0.07012184 0.68589175 0.08977444 -0.6712859 0.104613476 -0.25271064 -0.45529315 0.12565818 -0.72438425 0.0042734984 0.097988375 0.17271899 0.561924 -0.22660807 -0.75533426 0.07780388
6457 0.70054495 0.07573904 -0.08392793 0.19984508 -0.19570246 -0.25391823 0.14147572 -0.087872386 0.6946333 0.56874925 -0.47420815 0.76680183 -0.551837 0.32183823 -0.37731525 0.6006157 0.48844838 -0.18401669 -0.5579286 0.65265405 0.2484739 0.112198584 0.9196461 0.34004486 0.10010455 0.34516695 0.6190245 -0.15274787 0.47743207 -0.026792211 -0.5151504 -0.3158072
703 0.69539505 -0.6497582 -0.47043872 0.2203024 0.17605257 -0.5379888 0.08388349 0.023233345 0.866821 0.7185913 -0.55657744 -0.35538986 -0.24372728 0.7859378 -0.28763694 0.2115869 -0.04296252 0.16909912 -0.18956007 0.9426386 0.3723935 0.32427078 0.6369774 0.9331211 -0.047449373 -0.2219438 0.113311775 -0.6070048 0.41191435 -0.3523665 -0.23372342 -0.21948312
4801 0.8747547 0.21055244 -0.10969612 0.30550155 -0.15688507 -0.13626446 0.0051887874 0.045033816 0.67439085 0.40171045 -0.47560826 0.75666815 -0.4767757 0.28281683 -0.23208705 0.58209586 0.5733696 -0.07585664 -0.38403058 0.49173203 0.27444908 0.07641791 0.8243357 0.27845854 0.10576452 0.3289928 0.7298927 -0.26969862 0.66306496 0.014715406 -0.44658402 -0.0614571
3340 0.7857084 0.07166741 -0.025970805 0.4162636 -0.20007497 -0.23185964 0.155009 -0.009061113 0.53898424 0.38860714 -0.5226353 0.92848223 -0.70353407 0.18185985 -0.42594683 0.57640266 0.48077908 -0.16433954 -0.52425504 0.6637444 0.22969836 -0.21138224 0.88425386 0.2597673 0.084099576 0.24022855 0.49939677 -0.24030112 0.58895725 0.029433297 -0.4784745 -0.32241246
8278 0.6076721 0.12516472 -0.28437322 0.19300951 -0.076354936 0.022195142 -0.36781135 -0.35293218 0.79471844 0.30962235 -0.38897893 0.8073688 -0.49268723 0.41273016 -0.34077263 0.20810659 0.023336446 -0.029890785 -0.40665406 0.31543386 0.18816723 -0.18706146 0.8436723 0.14181812 -0.15728486 0.28886762 0.8743926 -0.8443819 0.6751186 0.14144467 -0.5334056 -0.5374108
8305 0.5013052 -0.54511446 0.08700618 -0.16218336 -0.39772564 -0.09892296 -0.36078095 0.03217234 1.1170964 0.8432582 -0.5891232 0.010787678 -0.34430033 0.016201038 -0.50031585 -0.63826376 0.28358296 0.63534856 0.1740733 -0.4305165 0.12839812 -0.41573337 -0.41779763 0.029839395 -0.41235363 -0.09914066 -0.10766489 0.3419228 0.40823966 -0.29748955 -0.67282 0.16173156
7451 1.0524647 0.24831648 -0.2605994 0.40565303 -0.52778685 -0.22479437 0.005289943 -0.057663195 0.7778092 0.20193675 -0.85461694 1.0202003 -0.80272293 0.7309648 -0.096731335 0.6897056 0.22049752 -0.04907904 -0.26625264 0.4908076 0.089827806 -0.0009881101 0.55329937 -0.05351905 0.31218404 0.4361663 0.60219723 -0.43049085 0.21596213 0.49248785 -0.15041156 -0.06351339
5234 1.0369582 0.48706737 -0.24688636 0.5828444 -0.61902887 -0.4456067 0.040893953 -0.17917989 0.7692021 0.25448924 -0.84046656 0.7629787 -0.6396775 0.6609578 -0.32802686 0.40617657 0.25829053 -0.31454575 -0.42949337 0.3407448 -0.04247411 0.15307552 0.69363385 -0.019875515 0.2875963 0.46550694 0.7273896 -0.062454794 0.4251592 0.6752796 -0.08610683 -0.23108862
874 0.64134264 0.09551596 0.1738825 0.27564195 -0.1294929 -0.26079747 -0.03063536 0.01984149 0.82030535 0.38037586 -0.47421783 0.8845291 -0.4254119 0.3474954 -0.6251245 0.6606265 0.6094184 -0.021929186 -0.39404985 0.67737937 0.16505107 -0.033430677 0.9445467 0.37336603 -0.09627566 0.23662052 0.5714672 -0.2919196 0.52150214 0.1859913 -0.5101535 -0.39695922
579 0.8927335 0.4301822 -0.1734764 -0.12644751 0.01825138 -0.54940397 -0.4316886 -0.7413353 0.72779274 0.09610157 -0.5835815 0.8672438 -0.58344465 0.941001 -0.14981233 0.25488362 -0.24053441 0.02797755 -0.5214944 0.065933526 0.08376456 -0.5289167 0.93961805 0.079914935 -0.08435429 0.43624794 0.83851635 -0.70507294 0.46180734 0.5541547 -0.20704375 -0.5059765
4444 0.30374292 -0.80114436 0.10412947 0.286958 -0.30509558 -0.86092687 -0.2737772 0.1296855 1.120204 1.0405223 -0.18860434 -0.18159334 -0.5758203 -0.48375052 0.18378778 0.00022727788 -0.15712202 0.49501574 0.0360815 -0.7600382 0.57874155 0.0067822975 -0.13520773 0.13864471 -0.31185302 -0.16540343 0.24361698 0.744626 0.7678473 -0.2016104 -0.76699936 0.2640586
8046 0.48159134 -0.67775965 0.33283705 -0.013332241 -0.40532348 -0.5793241 -0.105736665 0.45633727 1.046162 0.79882294 -0.5026968 -0.10323494 -0.4012189 0.1871373 -0.23041071 -0.5118063 0.30115888 0.7827716 0.009219133 -0.57586616 0.5740495 -0.20928265 -0.42548868 0.23972993 -0.34654388 -0.21118511 0.06668482 0.15818152 0.2588282 -0.28660512 -0.72527105 0.1794043
8007 0.8495753 0.104432575 0.0727606 0.28451663 -0.16553946 -0.30633342 0.23704909 -0.1927746 0.5504139 0.4983363 -0.4250408 0.7436986 -0.78604287 0.28703338 -0.52938664 0.56757724 0.68090844 -0.14447854 -0.18822396 0.6146406 0.16966146 -0.07432336 0.9142243 0.33557674 0.2104235 0.29168713 0.49683774 -0.22566696 0.37942404 0.08123257 -0.49573025 -0.30653888
4197 0.53098595 -1.555431 -0.3061581 0.1981701 -0.36264467 -0.7345324 0.60120904 -0.1555107 0.95894545 0.59271806 -0.15934029 0.21639304 -0.19354542 0.022467457 0.15327787 -0.48962587 -0.9080872 0.6491086 0.07870949 -0.37500584 1.101807 -0.012049007 0.81811213 0.24463193 -0.28242603 0.08583546 -0.48597488 -0.2691894 0.289293 0.27620167 -0.45946345 0.34203944
7282 0.44883266 -0.3621982 0.16423045 -0.09769338 -0.37629232 -0.48980784 -0.16795564 0.28932098 1.1850952 0.73449445 -0.59430444 -0.022239545 -0.81471205 0.10308724 -0.38946515 -0.42634156 0.17607328 0.5181235 0.05413556 -0.47519466 0.4624128 -0.43843973 -0.6479679 0.0043637 -0.6269273 -0.017050682 0.0564056 0.24916767 0.24306476 -0.21932918 -0.64801604 0.3954713
6247 0.80338544 0.41280225 -0.53014666 0.33331057 -0.020243421 -0.35479462 -0.24136409 -0.34077704 0.73153156 0.45981723 -0.53740865 0.58567667 -0.60739815 0.09334652 -0.5896521 0.15910171 0.3218489 0.08194824 -0.669171 0.707344 0.20229146 0.464266 0.84342474 0.13984194 0.15854429 0.2996222 1.136419 -0.21473704 0.5344789 -0.344084 -0.25469118 -0.033927303
8139 0.6358527 -0.7265132 0.49840885 -0.029170677 -0.2939718 -0.5163525 -0.41554606 0.3314383 1.0644885 0.8890037 -0.5481434 0.047628198 -0.53771526 -0.043574132 -0.57206345 -0.62249714 0.15728806 0.45536354 -0.0343203 -0.5558211 0.26673424 -0.2679961 -0.41997057 0.038456842 -0.28055042 -0.2811312 0.02677734 0.4337838 0.37546012 -0.12081485 -0.74827296 0.13645329
6668 0.522701 0.31553832 -0.19773823 -0.0011198599 -0.22447619 -0.04873819 -0.36192402 -0.06755035 0.8955829 0.41330937 -0.5449456 0.7567765 -0.55277276 0.36010528 -0.40183854 0.4503333 0.24936786 -0.040914148 -0.2604086 0.7077589 0.19056408 -0.05435741 1.0402013 0.26035443 -0.06817607 0.4556968 0.7099923 -0.2744389 0.43295243 0.0661494 -0.6018617 -0.50637037
2403 0.37024206 -0.41591266 -0.12042271 -0.077501595 -0.8799849 -0.15739053 0.31358638 -0.47559538 -0.38383812 0.3227167 -0.8984957 0.5419833 0.35308027 -0.5612197 -1.3268039 0.094937235 -0.10579611 0.45241055 -0.027727008 -0.78900427 0.2155263 -0.9412577 0.5632767 0.1644575 0.08742808 0.87606883 0.22168986 0.23600058 0.10536523 -0.2853025 -0.090729654 0.5981419
5008 0.87851214 0.066028945 -0.20264556 0.24320431 -0.37698218 0.013550095 -0.397249 -0.13070771 0.7853361 0.10416102 -0.5974752 0.82940847 -0.7071328 0.5458574 -0.41538876 0.79347485 -0.035684083 0.048754413 -0.31191635 0.45825133 0.0152573045 -0.16918635 0.9974584 0.1965098 -0.15157136 0.4793993 0.8482175 -0.44001964 0.056504495 0.53264415 -0.29615134 -0.49377224
1581 0.1471193 -0.3448422 -0.5541267 -0.07656286 -0.54054165 -0.0930753 0.09399392 -0.16783561 -0.0712088 -0.06797083 -1.3325369 0.5467298 -0.118968405 -0.6669753 -1.2407819 0.1773802 0.26690754 0.27106744 0.13905214 -0.21027943 0.18962318 -0.9739256 -0.04219147 0.3396941 0.06086553 0.17803259 0.23258719 0.2045668 0.2662548 -0.4033596 -0.24884741 0.46470672
7465 0.42190328 0.21057644 -0.08733297 0.218889 -0.16476117 -0.2222249 -0.0035812745 -0.001223268 0.8062286 0.28949368 -0.46808437 0.7953437 -0.39110675 0.3963229 -0.5716713 0.51609486 0.47792155 0.088001646 -0.36544567 0.7506627 0.4010644 0.054250363 0.9341602 0.205604 0.07998209 0.48699057 0.63558805 -0.37623596 0.5553813 0.028309317 -0.5776156 -0.2643102
3370 0.921502 -0.70280695 0.029880207 0.049291722 0.056519292 -0.7932054 -0.38739645 0.118289754 1.286822 0.6212318 -0.054565664 0.0104216365 -0.3898589 -0.10773791 -0.37330702 -0.43412843 0.1415577 0.9263251 0.066540785 -0.31404617 0.61452687 -0.06402585 -0.6343934 0.13507086 -0.5068668 0.06430319 0.29160437 0.46349147 0.16702642 -0.110100836 -0.29966778 0.17464904
2804 0.9029287 0.046476442 -0.2571725 0.03416011 -0.187378 0.044689424 -0.16114207 -0.14633876 0.84623015 0.45076862 -0.32088295 0.744018 -0.6572847 0.41875264 -0.402255 0.6376713 0.3146555 -0.10650663 -0.45039818 0.5327688 0.13856974 -0.19951893 0.98136264 0.10295804 -0.02479368 0.4148687 0.89305663 -0.1892977 0.291059 0.08675303 -0.36951917 -0.30580124
8041 0.8230375 0.16916229 -0.038057476 0.25356913 -0.28160548 -0.02669378 -0.08663273 -0.18850109 0.957064 0.37110028 -0.4293475 0.80366117 -0.56037325 0.3934569 -0.4617506 0.62999034 0.25115937 -0.06606787 -0.2688866 0.62884295 0.13148193 -0.026847906 1.049288 0.10038289 -0.16908307 0.40946743 0.84888834 -0.30714738 0.13405292 0.17136553 -0.36181992 -0.32763484
1575 0.57339275 -0.5645368 0.57111764 -0.2707881 -0.44055524 -0.42495435 -0.022468252 0.47937545 1.1299666 0.87116504 -0.44682312 0.056351025 -0.711345 -0.09632656 -0.54523516 -0.67872864 0.048048474 0.45150086 -0.012426382 -0.3583083 0.32637948 0.046721015 -0.26061636 0.06491603 -0.26971784 -0.17669962 0.09353502 0.425481 0.2663787 -0.021951193 -0.920665 0.21731117
3501 0.86975706 -0.99785006 -0.45594448 0.2940614 0.070902504 -0.86798 0.54350597 -0.094022304 0.7493768 0.7902806 -0.791225 -0.19217071 -0.038938325 0.2781383 0.18418103 -0.42203653 -0.98954004 0.8803653 0.08541112 -0.048872504 0.5658835 0.16022591 0.6595712 0.55524164 -0.6554118 -0.31575403 -0.34157416 -0.24445127 0.08694319 -0.040930953 -0.3130251 0.33687177
1163 0.93279576 -0.89826745 -0.44292274 0.12511614 0.020496327 -1.1980722 0.57411784 0.12475906 0.6354033 0.48127812 -0.9176336 -0.41512486 0.51966983 0.55398226 -0.054465506 0.14058913 -0.9390448 0.65670145 0.20546222 0.1926804 0.9753873 0.13518038 0.42167732 0.67109275 -0.36887658 -0.43875226 0.016774392 -0.0150131285 0.25659385 -0.1503069 -0.33509398 -0.013679332
1198 1.0307065 0.09262469 0.08631538 0.3884317 -0.28899816 -0.15968694 -0.1495545 0.05669563 0.8159352 0.24764952 -0.47864482 0.9708748 -0.48346537 0.49335575 -0.48010266 0.80390143 0.42058703 -0.21737646 -0.39586616 0.4872755 0.16098921 -0.020454673 1.0013133 0.13225697 -0.047951307 0.29978475 0.6573298 0.04440456 0.17107767 0.35731444 -0.32484517 -0.27210793
828 0.5616991 0.055515602 -0.21515256 0.75560665 -0.43748704 -0.24428648 -0.37447965 0.0613444 0.57996124 0.06908207 -1.0046588 1.1170275 -0.40674624 0.6129914 -0.12502304 0.19422218 0.27167144 0.18650588 -0.47848952 0.9993188 0.24177626 0.059819642 0.7916369 0.34624073 0.25102443 0.4416695 0.5288431 -0.23404531 0.6839202 0.45968807 -0.24496818 -0.22100432
4642 0.8427503 0.286571 -0.14612287 0.3298519 -0.58519375 -0.062510945 0.13241896 -0.092801765 0.8088794 0.6788708 -0.56789356 1.0307918 -0.41126546 0.28733534 -0.27026263 0.45392248 0.6636336 -0.18525112 -0.19603594 0.67282045 0.14446287 0.0045241416 0.8804656 0.20485573 0.10780448 0.22459015 0.6219617 -0.17041449 0.5652193 0.3083637 -0.16502671 -0.17680755
3052 0.3645546 -0.58722574 0.33014303 -0.1304159 -0.3488207 -0.7979733 -0.44139108 0.37460515 0.88463914 1.005046 -0.5368303 -0.15525149 -0.631825 0.02188783 -0.5690571 -0.53187335 0.22360848 0.43384054 -0.075760745 -0.51869076 0.40163472 -0.06889705 -0.49878973 -0.018004978 -0.17585543 -0.028194677 0.056524064 0.076932885 0.2101463 -0.02097443 -0.74802357 0.17355657
7976 0.7188146 0.32885063 0.060722362 0.2615776 -0.240392 -0.4586865 -0.2250766 -0.1496595 0.5565047 0.5203439 -0.3609339 0.84530056 -0.7559764 0.20934178 -0.3738974 0.43123907 0.60787404 -0.39646736 -0.11943258 0.52153593 0.38864794 -0.056452636 1.0366694 0.37517163 0.37712866 0.3196333 0.8310321 -0.11185142 0.49033067 -0.049987428 -0.42480713 -0.1295884
6061 0.52666175 0.015475824 -0.37625185 0.20840377 -0.5294051 0.025800867 -0.33503196 -0.22678524 0.9064544 0.38779974 -0.4559478 0.79671127 -0.35231996 0.6391628 -0.18678848 0.5468833 0.23771362 0.13348407 -0.20819141 0.6305175 -0.014364278 -0.27671376 0.88329726 0.22501963 -0.36790204 0.550798 1.0899752 -0.6112414 0.09982472 0.1764931 -0.3137651 -0.41603008
6410 0.56870645 -0.5748341 0.2268151 -0.09953201 -0.29681426 -0.6331072 0.295315 0.19499886 1.1133013 0.75966716 -0.3617449 -0.11826252 -0.35344318 0.103833795 -0.55170274 -0.60346025 0.3293839 0.2527911 0.10851704 -0.6722878 0.2224452 -0.42135632 -0.44693297 0.21206519 -0.49630287 -0.19607404 0.018606788 0.34059456 0.59423256 0.12605837 -0.49861565 0.33751175
7988 0.83721876 -0.6584845 0.34161106 -0.42858866 -0.17542274 -0.5954165 -0.03902854 0.33573398 0.76456326 0.34876138 -0.38553238 0.011500693 -1.0755421 -0.0736666 -0.11267158 -0.3114045 0.56889653 0.6580067 -0.17501435 -0.4514574 0.35527092 0.079741776 -0.15654342 0.20773064 -1.1916602 0.007553932 0.52108413 0.3311916 0.76258636 0.18482736 -0.51815295 0.027350241
5354 0.8838112 -0.9685091 -0.33999032 0.19876105 -0.21454427 -0.8915266 0.11754723 0.36835894 0.9792132 0.6113276 -0.32838207 -0.25009084 -0.058344804 0.2493806 -0.057978183 -0.4377424 -0.7207811 1.0491391 0.13887352 -0.10481831 0.5451067 -0.06003901 -0.010798134 0.71044165 -0.47331995 -0.6282402 -0.008310654 0.07000887 0.26371053 -0.3226732 -0.4637148 0.034052283
8122 0.10647585 -0.41560012 -0.5247497 -0.10451283 -0.54214686 -0.16363236 0.09215527 -0.22278178 0.065698646 0.16261536 -1.1614962 0.3166288 -0.15962014 -0.9816398 -1.1165904 -0.0041327826 -0.15347195 0.42113248 -0.1472525 -0.31730625 0.07327886 -0.9230086 0.010606885 0.3896127 0.13086326 0.49898595 0.08103416 0.48838335 0.114707895 -0.23777519 -0.27643755 0.22452766
927 0.7815875 0.0035684821 0.01557528 0.33784652 -0.18354718 -0.17699602 0.13573512 -0.005253241 0.49706233 0.47224873 -0.33420458 0.7699255 -0.66765165 0.3149622 -0.62349933 0.49519232 0.6396985 -0.009946138 -0.25681543 0.5936465 0.2639101 0.057229627 0.9697901 0.17107 0.19095957 0.4344861 0.58547246 -0.25302508 0.6586619 0.026596513 -0.47660586 -0.22267154
7522 0.121070154 -0.16293734 -0.18701304 -0.32642585 -0.7282367 -0.07194526 0.2683013 -0.20917024 0.16421479 0.1346381 -1.1490601 0.17594102 -0.17041326 -0.95542884 -1.1315519 -0.098441675 0.21755539 0.6525051 -0.0723516 -0.67495286 0.15467052 -0.7947866 0.17130825 0.25113657 -0.025642242 0.550378 0.17745477 0.7318398 0.15958548 -0.11572825 -0.019493213 0.30789846
7137 0.7791625 -0.42738146 0.076705515 0.105679266 -0.33556977 -0.41636118 -0.29694283 0.46499208 1.1813852 0.9138795 -0.54714185 -0.07520863 -0.6233668 -0.030286454 -0.41253603 -0.4334584 0.10239176 0.73145413 0.044423882 -0.6435072 0.29072604 -0.18407197 -0.4898185 -0.1401851 -0.42293203 -0.054337803 -0.083223544 0.45876536 0.46996295 -0.2037002 -0.6253206 0.20619938
1430 0.03520247 -0.3019173 -0.26673302 -0.23188627 -0.8035217 -0.37416813 0.33463344 -0.21222718 -0.26385194 0.3954958 -0.99255264 0.43374482 0.047235794 -0.7103541 -1.257089 0.09454524 -0.08626233 0.64114493 -0.064866945 -0.7099194 0.08108508 -1.0160007 0.5163655 0.12908088 -0.1137465 0.7845641 0.253015 0.23447572 -0.001246243 -0.29514444 0.003532564 0.38270026
1299 0.46731564 -0.40696076 0.273707 0.0021006316 -0.33265743 -0.41068703 -0.36269218 0.12059511 1.0411571 0.94888806 -0.46672684 -0.010012041 -0.54286146 0.053565435 -0.64127433 -0.7291164 0.19026989 0.29667494 0.02645656 -0.38085082 0.42667645 -0.14069846 -0.44394213 0.12994504 -0.4675225 0.050703257 -0.015640495 0.38882744 0.47659275 -0.33382168 -0.7467979 0.31205395
5064 0.33169177 -0.5695511 -0.20385945 -0.17850958 -0.6531666 0.07670434 0.5363696 -0.027581552 0.23998705 0.09022979 -1.3139362 0.25135717 -0.059844017 -0.8948358 -0.8919089 0.15309763 0.14711246 -0.010354577 -0.51513463 -0.16548993 -0.35605112 -0.84470093 0.27659276 0.20400345 0.14145881 0.72529125 0.2876489 0.13413252 -0.23539549 -0.25373203 -0.27273464 0.4367935
1779 1.0056595 0.15357625 -0.023475306 0.3347256 -0.23419377 -0.1405847 -0.1328804 0.0674109 0.807494 0.4008099 -0.37519664 0.8083562 -0.7073488 0.30821538 -0.47012097 0.619638 0.32147238 -0.3654133 -0.38248068 0.55458164 0.3312121 -0.13686259 1.1135736 0.038513087 -0.0816302 0.24345 0.6771739 -0.20338656 0.15139864 0.31883582 -0.5033478 -0.26044497
3167 0.33209047 -0.43750423 -0.3029602 -0.2999016 -0.7242245 -0.19973384 0.05877781 -0.39454147 0.046710864 -0.057567947 -1.1722302 0.20071843 -0.13136849 -0.84885687 -1.2554573 0.07473669 -0.07727243 0.30220512 -0.05544731 -0.5040567 -0.11082595 -0.97720945 0.15927148 0.08645248 0.08917843 0.30348003 0.17786519 0.2660784 0.26493502 -0.3195297 -0.43345535 0.20933153
572 0.75582945 0.30796206 -0.4087685 0.3448874 -0.49394643 0.046040587 -0.40508458 -0.22003515 0.83334064 0.1797778 -0.49520153 0.9074812 -0.5073375 0.49226114 -0.40890974 0.70453286 0.01958421 0.07203943 -0.31000057 0.32742205 0.0681895 -0.2499708 0.925337 0.24145809 -0.34587872 0.22686161 1.040159 -0.68048865 0.08098418 0.3760348 -0.38495466 -0.46551692
4125 -0.022699453 -0.38461637 -0.22496557 -0.2539117 -0.78132105 -0.24304374 0.47578704 -0.38571543 -0.13752373 0.2644302 -0.99818206 0.5178566 0.2285547 -0.47365078 -1.4243369 0.15125914 0.09767442 0.8187669 0.09104466 -0.80795145 0.16292 -1.0483158 0.49741894 0.14191994 0.11607577 0.7852559 0.35046974 0.21692272 0.039126564 -0.2010018 -0.09634052 0.28314158
5424 0.09036402 -0.18188187 -0.08868622 -0.191544 -0.83950055 -0.40142667 0.29722255 -0.025469767 -0.02248615 0.10384361 -0.8450117 0.2650557 -0.11882072 -0.7791962 -1.1122031 0.18726462 -0.31195968 0.7776217 -0.0001894087 -0.7001948 0.09790323 -1.047351 0.5837647 -0.06915053 0.092276946 0.66529834 -0.030125612 0.27297807 0.34252337 -0.36978817 0.032410853 0.19262025
2876 0.929617 0.12578444 -0.25468883 0.12516193 -0.21693529 -0.20009065 -0.0741359 0.025706504 0.74511486 0.22336686 -0.40380454 0.6605087 -0.5939128 0.4698704 -0.5883795 0.845385 0.45399082 0.035582446 -0.30559975 0.7012996 0.18782613 0.012316964 1.0398597 0.29051745 -0.22959584 0.4024448 0.6227409 -0.19558437 0.27274194 0.19372576 -0.41657326 -0.29568067
6966 0.09136313 -0.6077478 -0.32139754 -0.3307584 -0.723793 -0.26162916 0.39231884 -0.2605816 -0.27697238 0.25711906 -1.0022184 0.5285614 0.091399014 -0.47514153 -1.4321504 -0.053082608 0.05568424 0.487739 0.0028956218 -0.7168244 0.15400489 -0.99389064 0.53571594 0.1233876 -0.052931596 0.8221881 0.34872326 0.3707616 -0.04908594 -0.32131952 -0.094559096 0.42193943
574 0.93902093 0.18374613 -0.03285646 0.24043411 -0.08950229 -0.14550467 0.1306787 0.044905778 0.53017664 0.4681166 -0.38568795 0.9408715 -0.62062263 0.16027859 -0.415169 0.73020285 0.45594987 -0.25510648 -0.36824661 0.476991 0.2678236 0.04245283 1.0038805 0.18165982 0.048342783 0.36379486 0.5988201 -0.093833275 0.44059405 0.07545393 -0.5561226 -0.15082084
5361 1.010254 -0.5569476 0.5794191 0.12373992 0.7200277 -0.13958555 0.02727156 0.20311242 0.2759741 0.3651973 -1.3459892 0.34696957 0.17386688 -0.14269376 -0.351397 0.0922989 0.9788902 0.22721522 -0.50389624 0.29224572 -0.22482549 -0.03214838 0.37532377 0.34410575 -0.020079874 -0.09919565 0.6478098 -0.1509682 0.078039154 -0.20814982 -0.43329266 -0.28972575
3813 1.1099385 -0.5928058 -0.53112096 0.20374115 0.15943067 -1.0462381 0.36710405 0.08326991 0.63396025 0.93482655 -1.0693582 -0.41719544 0.6985995 0.18560496 -0.060288955 -0.07958985 -0.8936636 0.5586998 0.0974823 0.68920815 0.5512551 0.19965552 0.5939803 0.7764792 -0.09393207 -0.18902852 0.16344367 -0.03498164 0.22426288 -0.38489857 -0.0074689197 -0.12694004
2849 0.7257443 0.39921007 -0.3678767 -0.011284126 -0.11439894 -0.00904421 -0.41336644 -0.6261888 0.67337936 0.3722642 -0.35380346 0.84291494 -0.81075823 0.6252183 -0.5556312 0.252141 -0.16265082 -0.16089286 -0.29368478 0.1846813 0.18922344 -0.29184088 1.0168885 0.12950473 -0.41651952 0.3121267 0.9749019 -0.36882094 0.5801265 0.3394736 -0.33842424 -0.42011994
4870 0.031190837 -0.45616186 -0.47826526 -0.22166054 -0.7002413 -0.045588676 -0.037126448 -0.27616224 0.12451269 0.3280205 -1.03568 0.47141755 -0.0010575925 -0.73171145 -1.1678808 0.19211523 -0.15482943 0.649171 0.18014929 -0.4293755 -0.06718089 -0.99993217 -0.008342065 0.12532316 0.14687118 0.5939802 0.018751433 0.47861314 -0.04707443 -0.26295695 -0.5414197 0.09718554
654 1.0259761 0.3386823 0.06002276 0.53210664 -0.35578793 -0.35884628 -0.2389109 -0.10276347 0.5224985 0.4004396 -0.75624824 0.86594296 -0.62219113 0.2819762 -0.22691143 0.8487635 0.75177765 -0.39367008 -0.29021445 0.44561127 0.28731236 -0.13611694 0.6649314 0.23843549 -0.0029799421 0.2470542 0.66844124 -0.102706626 0.3035753 0.18421166 -0.34683535 -0.1041833
1120 0.4770378 -0.28917775 -0.4292744 -0.23614688 -0.7874484 -0.16187443 0.28686297 -0.52453583 -0.20119259 -0.12610847 -1.2101958 0.6099487 0.17600144 -0.8113075 -1.1337969 0.008959854 -0.060214013 0.48951134 0.053192336 -0.64334786 0.1288832 -0.88664806 0.035819788 0.44101286 0.08228598 0.62845266 -0.03021053 0.21512991 -0.078634724 -0.0063759754 -0.48088047 0.31804445
1262 0.41534445 -0.45989206 0.19413958 0.25608173 -0.46583414 -0.36875042 -0.17806867 0.47093883 1.2830116 0.96607524 -0.43395278 0.002713756 -0.5632467 -0.109632306 -0.40704906 -0.5564445 0.0013192764 0.6303395 0.008396172 -0.6631146 0.3128642 -0.08785879 -0.4177656 -0.22311623 -0.45292696 0.020655366 0.19241478 0.1229038 0.52975607 -0.21223292 -0.5163706 0.23584211
167 0.9116996 0.08136741 0.18815997 0.32180706 -0.123205386 -0.17474869 -0.11431614 -0.12669776 0.5965003 0.6313721 -0.50311714 0.9208035 -0.80567706 0.40466312 -0.43605527 0.5927013 0.46958062 -0.26452795 -0.3888774 0.55475265 0.27018327 0.007954244 1.0000532 0.2467987 0.057907414 0.14744525 0.5313236 0.005806248 0.44372648 0.21596502 -0.3410946 -0.27234095
3021 0.9329539 0.50328785 -0.45585695 0.03595083 -0.33274058 -0.25133413 -0.4094962 -0.122793995 0.8223109 -0.16008358 -0.5796637 0.81473005 -0.6648332 1.0467764 -0.38789588 0.36315385 0.17755142 0.2571695 -0.44030988 0.2716633 0.24082664 -0.29387164 0.77210945 0.2914532 -0.14261892 0.6828915 0.80821335 -0.58001 0.14609322 0.3974763 -0.24568124 -0.3102359
4696 0.58736503 0.38806272 -0.2163945 0.2680166 -0.11957607 -0.43400988 -0.20298092 -0.14578763 0.8962671 0.35072166 -0.60269 0.6422657 -0.59491587 0.25508884 -0.20155893 0.6380331 0.8285185 -0.39977014 -0.24463499 0.39566928 0.37566075 -0.088993564 0.714476 0.50129473 0.27170202 0.12730895 0.7077594 -0.13248694 0.46131596 -0.061043575 -0.48292625 -0.10816278
3528 0.2759283 -0.20924631 -0.4210493 -0.21610907 -0.63004214 0.0052208733 -0.10399788 -0.2668536 0.020823095 0.08392387 -1.1414889 0.29459468 -0.015365824 -1.0043368 -1.2034249 0.027485281 -0.19226474 0.28660083 -0.0063973283 -0.5595517 0.2334128 -1.007931 0.29285848 0.21942276 0.03133057 0.14440499 0.17482954 0.6368278 -0.25123528 -0.33319712 -0.5595225 0.2591497
6103 0.40021923 -0.33771107 0.479007 0.21113057 -0.012327804 -0.11158961 -0.0049203695 0.054621167 0.99843097 0.7399503 -0.4009474 0.09268507 -0.31290647 -0.07337652 -0.6991558 -0.34859127 0.23512897 0.46676415 -0.22434224 -0.048308264 0.28031537 -0.64576614 -0.4148049 -0.0013364641 -0.112446345 -0.20710464 0.20797144 0.17719968 0.37754142 -0.14668103 -1.1189061 0.2434816
1889 0.41583008 -0.8380956 0.2952139 0.18999694 -0.25955287 -0.5312844 0.17273323 0.06518907 1.213037 0.96331555 -0.4677465 -0.118192635 -0.33766326 -0.01731643 -0.59126383 -0.36014268 0.19854298 0.6481655 -0.13864495 -0.37670428 0.4589572 -0.18016128 -0.4713763 0.13117695 -0.31881082 -0.24453491 -0.16939317 0.23953414 0.2379279 -0.18860304 -0.5782043 0.027486078
729 0.80563146 -0.33113092 0.47702542 -0.23431346 -0.11768907 -0.6015227 0.09780779 0.61869276 0.9887228 0.70484805 -0.4721444 0.098959826 -0.85751134 -0.009294355 -0.084320806 -0.71528506 0.44181225 0.89408374 -0.07105183 -0.8294155 0.39157626 -0.06197895 -0.31530872 0.31721583 -0.57540715 -0.08137495 0.39895236 0.31723118 0.35123137 -0.19543537 -0.4459501 -0.03030206
8070 0.43333688 0.101306096 -0.00934798 0.15715642 -0.45815757 -0.02096474 -0.09326392 -0.16290656 0.80112004 0.4475422 -0.53300697 0.73855174 -0.47997433 0.6818089 -0.6738157 0.661331 0.3907143 -0.11234804 -0.58846825 0.4861212 0.2719171 0.3892823 1.059453 0.3811086 -0.0033857247 0.39746764 0.6171236 -0.11161303 0.3857067 0.22975971 -0.48974633 -0.32371315
5139 0.25031316 -0.3459821 -0.4948665 -0.23763952 -0.76426953 -0.048666265 0.13016424 -0.37474418 0.001630096 -0.032755088 -1.176089 0.40355644 -0.117483005 -0.8452918 -1.1830597 -0.0037101943 -0.15714337 0.37951252 0.094025426 -0.48212853 0.119909406 -0.95157444 0.17214903 0.3012975 -0.033135265 0.532756 0.22234896 0.46539506 -0.025044255 -0.13510962 -0.32453945 0.45099416
5544 0.38759252 -0.45293105 -0.18334907 -0.13012415 -0.7659992 0.1805089 0.27251127 -0.3458698 0.09325428 0.13210845 -1.2351055 0.36897433 -0.093468904 -0.9995142 -1.100139 0.018889314 -0.22467259 0.1874719 -0.11289949 -0.45914274 -0.23033333 -0.96755624 0.20202424 0.20700018 -0.091693036 0.42449138 0.20539294 0.39493954 -0.03024574 -0.15028684 -0.40930122 -0.05336287
521 0.67676044 -0.5690423 0.37940538 -0.14340222 -0.1541921 -0.6515089 -0.114681445 0.14055863 1.0615757 0.76611114 -0.23341343 -0.012711335 -0.49616882 0.15064578 -0.36253205 -0.47917047 0.20623712 0.7169749 0.0802641 -0.5646878 0.6145084 -0.11087688 -0.46741048 0.31728652 -0.5345623 -0.08415146 0.07938897 0.23788239 0.17256553 -0.31353042 -0.7090484 0.2952614
6621 1.011091 0.56857497 -0.5296675 0.15103152 -0.2600001 -0.5278356 -0.21371907 -0.122271515 0.70336413 0.09301439 -0.5230335 0.96971744 -0.6795244 0.9680571 -0.37883526 0.20539226 -0.07210067 -0.045996044 -0.651049 0.11377634 -0.035325576 -0.40365502 1.0979882 -0.0060868934 -0.23333947 0.65092623 0.88964057 -0.24224228 -0.18281662 0.5770344 -0.2278343 -0.3906623
1312 0.9268091 0.39527565 -0.3093513 0.29625058 -0.5453805 -0.37069437 -0.22088435 -0.12751395 0.7745681 0.20481278 -0.63629675 1.0159324 -0.63835603 0.8945667 -0.2366705 0.7150046 0.34384453 -0.25822684 -0.22993082 0.42550656 0.0155366305 -0.20284165 0.7027892 0.31617475 -0.15834948 0.33094335 0.69068915 -0.20385747 -0.1577828 0.54062814 -0.4818394 -0.12801675
3309 0.105714835 -0.45859402 -0.18710095 -0.10867329 -0.74006075 -0.4203602 0.52150095 -0.42298818 -0.14906627 0.10419154 -1.0263166 0.27148017 0.14750868 -0.519848 -1.2446637 0.11002791 0.10525454 0.6689074 0.20546639 -0.76348424 -0.05485723 -1.0158813 0.6822092 0.144544 0.0248891 0.7904667 0.17885712 0.41458297 0.12861946 -0.2634691 0.031084713 0.35357305
6199 0.5515518 -0.9685602 0.13488166 -0.17589805 -0.31708908 -0.64451694 -0.42612693 0.35604385 0.7779598 0.7664856 -0.57808805 -0.34925976 -0.5703752 0.04951502 -0.53259516 -0.38845715 0.30747557 0.31761974 0.090526134 -0.30634272 0.4531671 -0.18153119 -0.60716033 0.13696404 -0.31361017 0.2512161 0.11437765 0.24394743 0.4899457 -0.009549165 -0.95908374 0.24880843
3270 0.8324311 0.07777507 -0.16028634 0.38216212 -0.44134864 0.010053536 -0.58337826 0.038700614 0.84209263 0.21300991 -0.43358186 0.9135944 -0.52554446 0.6375897 -0.29900545 0.7768434 0.0013469589 0.17021249 -0.25219446 0.3308232 -0.020215899 -0.43728247 1.0615324 0.03694346 -0.31657076 0.28990394 1.0434268 -0.43806958 0.06379328 0.48520643 -0.3289305 -0.59735143
3375 0.78623563 0.14693528 -0.53487563 0.08303907 -0.14344618 -0.14367339 -0.05159151 -0.48314327 0.7425453 -0.100750126 -0.6817802 1.08337 -0.5940738 1.2101365 -0.18382792 0.27814543 0.11740833 0.129552 -0.31509122 0.41660732 0.21388392 -0.41483933 0.843873 0.010365702 -0.17913468 0.7235453 0.82937807 -0.4666141 0.36734873 0.46985745 -0.22959389 0.07667495
1535 0.24218391 -0.8111596 -0.43363485 -0.0017037154 -0.6216091 -0.3824725 0.68524003 -0.3620022 0.0038210305 0.14029038 -0.5705044 -0.13056277 0.03921503 -0.6195539 -1.3393818 0.109020196 -0.20475237 0.33835548 0.13875224 -0.9179005 0.20046811 -1.1304582 0.81576866 -0.020448497 -0.04273703 0.7653495 -0.028324205 0.15987833 0.26280785 -0.054406065 -0.19413881 0.7259495
6471 0.9225396 -1.1053568 -0.40844563 0.08287987 -0.11685121 -0.7963018 0.4165173 -0.101909935 0.75893384 0.7843617 -0.6648198 -0.13071662 -0.03083376 0.44149008 0.07891428 -0.22348662 -1.1276199 0.7217322 -0.000398681 -0.19434264 0.75742006 0.22262357 0.5053923 0.7002712 -0.52652353 -0.32508 -0.43400395 -0.16877545 0.2737806 -0.07592856 -0.17583004 -0.06530658
1340 0.5908713 -0.5279833 0.15370421 -0.17672752 -0.34311405 -0.22387588 -0.124294885 0.1411079 1.1833386 0.8876062 -0.6130059 0.09536861 -0.47975966 0.0047712945 -0.41478205 -0.5412142 0.014257573 0.50788105 0.1597455 -0.52020526 0.35890138 -0.25268975 -0.54662114 -0.21284816 -0.54752606 -0.095908016 0.008958418 0.3844151 0.47813943 -0.37087452 -0.84143835 0.23487721
3815 0.38577345 0.20997491 0.13949873 0.22915426 -0.12958664 -0.25405186 0.20703772 0.114378534 0.8814043 0.3848631 -0.5697981 0.887985 -0.44473228 0.35570017 -0.51682943 0.45235538 0.36643165 -0.10564897 -0.5277688 0.65253645 0.17886423 -0.12937604 0.86650306 0.26503196 -0.22885069 0.29702687 0.6826772 -0.3557538 0.437137 0.082781695 -0.4619363 -0.4374345
7939 0.8829092 0.01960642 -0.010641233 0.18751249 0.25426534 -0.044584222 -0.059836857 -0.025595166 0.55295956 0.7099761 -0.84168714 0.50787085 -0.105239645 -0.06876818 -0.9673601 0.5104773 0.483553 -0.34692824 -0.46444768 0.6054642 -0.017881177 -0.22171172 0.28025904 0.27310005 0.1933029 0.26716554 0.2713875 -0.3512378 0.49835074 -0.16597325 -0.10867739 0.05930155
3772 0.08586279 -0.32569864 -0.24595715 -0.36304063 -0.5802749 -0.1003203 0.46903256 -0.17960164 -0.076070905 0.11422555 -0.98186576 0.30089593 0.18700959 -0.70988804 -1.246249 0.16700737 -0.19345185 0.689689 -0.04406265 -0.7472445 0.28642926 -1.17361 0.49152556 0.2765534 -0.08841943 0.68201756 0.2319112 0.13817528 -0.10289056 0.015772998 -0.10345257 0.12453558
4346 1.0185183 0.36045697 -0.19404992 0.46124554 -0.41579422 0.03337567 0.14018801 -0.2437285 0.5985716 0.7101101 -0.5953048 1.0009836 -0.5659812 0.38930455 -0.21744847 0.33165422 0.56721467 -0.25179088 -0.29863977 0.5262783 0.19921757 -0.07564314 1.0230355 0.30179232 0.13760644 0.18790776 0.7137675 -0.036678832 0.500058 0.14220747 -0.20947601 -0.12011488
3189 0.66903526 -1.4524982 -0.26780874 0.1888428 -0.29235756 -0.83859766 0.6177003 -0.12576243 0.8893365 0.653584 -0.22822995 0.04406835 -0.28092393 0.006956267 0.2271899 -0.5860632 -0.903104 0.60950404 -0.00032814234 -0.45439917 1.0859758 0.10919264 0.83603907 0.21149352 -0.23549418 0.12703364 -0.4611106 -0.1373638 0.07884101 0.24202278 -0.6027304 0.2687141
738 0.24481161 -0.39061686 -0.29398626 -0.29457498 -0.90480417 -0.11931148 0.08710881 -0.35859263 0.034229804 -0.009856017 -1.1302022 0.41536954 -0.1001068 -0.7704337 -1.2814776 0.06567767 -0.23001014 0.46983516 -0.0367557 -0.4500215 0.024118323 -1.0981027 0.18507425 0.33948222 -0.045625627 0.5367665 0.092816025 0.49343622 -0.19448358 -0.048981514 -0.24042091 0.25638226
7884 0.5711132 -0.7173087 0.010071437 0.24795875 -0.20311934 -0.7372276 -0.12554653 0.2944953 1.1116391 0.9174208 -0.21856835 0.13683966 -0.5705353 -0.011949417 -0.36664364 -0.5718993 0.16381435 0.5193044 0.21786283 -0.55839247 0.2506343 -0.33834985 -0.344049 0.11687196 -0.45837703 -0.22011057 -0.018513143 0.47748068 0.24115779 -0.13346878 -0.80724925 0.13436985
4540 0.9333525 0.27096105 -0.02875964 0.42440164 -0.16554482 -0.30432987 -0.20843348 -0.0075643216 0.5448883 0.41225854 -0.7342978 0.8914767 -0.6324199 0.12757672 -0.19402173 0.64841896 0.6676199 -0.25060716 -0.51192683 0.43387115 0.110583365 0.07768954 0.606029 0.12221328 -0.029959379 0.16886222 0.39385316 -0.24527983 0.43280774 -0.14319451 -0.38984135 0.037899565
280 0.8858079 0.27786583 -0.20754144 0.2582552 -0.23005071 -0.068830244 -0.07285123 -0.08764261 0.7884456 0.36159012 -0.5864667 1.0342075 -0.5055443 0.75596195 -0.24864364 0.76799107 0.15413888 -0.09780812 -0.38928133 0.4572591 0.12695558 -0.3020429 0.8537756 0.2968759 -0.23420787 0.30725193 0.76131463 -0.107749835 0.124391094 0.64809805 -0.17567828 -0.1909907
8331 0.58511484 -0.47400078 -0.19517864 -0.23756567 -0.6931115 0.13843897 0.44382215 -0.4365589 0.24084607 0.14077161 -1.1426172 0.31606165 -0.10512553 -0.8744571 -1.1285491 -0.034214377 0.07620595 0.25820097 -0.34915993 -0.16255532 -0.3004814 -0.84661615 0.21768089 0.47230896 0.019162908 0.5271691 0.048659325 0.16888979 -0.29680634 -0.45122892 -0.08140643 0.28966904
3540 0.111937925 -0.26784357 -0.30787894 0.09297016 -0.49150094 -0.23613505 0.21111117 -0.28023243 -0.020550845 -0.053688243 -1.2332149 0.42979434 -0.029583065 -0.6721837 -1.4199632 0.46858785 0.34110734 0.06479396 0.26478478 -0.061096687 -0.090245225 -0.8412354 0.092010446 0.50203717 -0.1016665 0.07266211 0.4410646 0.018927848 0.2508491 -0.21604992 -0.18967086 0.59743136
3196 0.78444463 0.02056895 -0.7196282 -0.051542588 -0.06788026 -0.69318026 0.2603785 -0.42429307 0.53427386 0.34776655 -0.40334538 1.2647179 -0.35123703 0.20963575 -0.30632418 0.7192407 1.0061363 0.20130056 -0.16590448 0.15036345 0.032556448 0.44018626 0.28560677 -0.092064045 -0.43610895 0.21732599 1.0676214 -0.04430437 0.7299785 -0.6986757 -0.33402386 -0.6435572
488 0.56672686 -1.1985326 -0.50621253 0.21576093 -0.11755041 -1.1229239 0.44203576 0.28549945 0.8378199 0.79400706 -0.49377888 -0.16646336 0.05159531 0.10777964 -0.008355737 -0.30360618 -1.1745415 0.56465036 -0.19965607 -0.22044823 0.71124125 0.3151406 0.7326472 0.51630855 -0.47195703 -0.15573087 -0.2916628 -0.06628145 0.3538031 -0.09981677 -0.35772902 0.1729233
3648 0.79339504 0.51087016 -0.15235402 0.20874457 -0.2575383 -0.5441552 -0.5115944 -0.5017629 1.1498337 0.20828916 -0.6088414 0.6456505 -0.8174801 0.08574652 -0.20798485 0.70408595 0.5951523 -0.3544082 -0.2872402 0.47924858 0.07081802 -0.020902192 0.8322682 0.2504652 0.43928194 0.27861315 0.8237086 0.21818313 0.28287598 0.11330482 -0.43665317 -0.20660338
7728 0.81946427 -0.68392336 0.08679471 0.19541949 -0.39353216 -0.82510525 -0.16284075 0.4329727 1.1829492 0.8927367 -0.16710913 -0.082988136 -0.48745793 -0.15899763 -0.08016969 -0.21981886 0.18626864 0.9282004 0.08350121 -0.668936 0.2345753 -0.2565842 -0.45147634 0.15679458 -0.50859714 -0.18299782 0.200055 0.24782562 0.037385628 -0.07540866 -0.90273774 0.13285145
1147 0.591759 -0.7323153 0.17276664 0.015615651 -0.27032197 -0.8656269 -0.13931595 0.4381554 1.0706191 0.89039725 -0.28401363 0.025468493 -0.46151936 0.009065803 -0.33649212 -0.35984266 0.103005245 0.6652965 0.24369855 -0.47394335 0.44223577 -0.19930181 -0.43239892 0.18036927 -0.45209798 -0.23641129 0.10226878 0.39451697 0.33090228 -0.34714335 -0.6649666 0.2898973
5138 1.0671593 0.43890136 -0.3429562 0.31041488 -0.33856264 -0.27004832 -0.27095658 -0.120027676 0.7465679 -0.009893088 -0.76550037 0.9107988 -0.62580556 0.964987 -0.30684888 0.6309216 0.1246159 -0.17284064 -0.25399542 0.30869162 0.029289978 -0.31970024 0.7565478 0.12318181 0.006334994 0.5937669 0.5732312 -0.29101938 -0.006756427 0.43382466 -0.4167769 -0.3866552
2958 0.31588033 -0.496057 -0.5550034 -0.3192714 -0.9073968 -0.10458971 0.15819176 -0.29815006 0.056682214 0.004860078 -1.1326103 0.38323244 -0.032980185 -0.8231142 -1.4042301 0.07667536 -0.15169744 0.59736145 -0.047286544 -0.49014622 -0.1280638 -0.949672 0.23396583 0.33180138 0.07457983 0.57636356 0.16263498 0.47634044 -0.021543946 -0.13757832 -0.28193763 0.27847716
5838 0.31826103 -0.14365251 -0.078114055 0.12312538 0.10211353 -0.5862594 0.27460796 0.02404896 0.9764665 0.7297356 -0.76761705 -0.08992551 -0.057233356 0.38866925 -0.082471505 0.29700643 0.28775302 0.35587978 -0.34874812 0.8155401 0.058713317 -0.035093967 0.308991 0.758413 0.2009296 0.39030278 0.6624156 -0.50141555 0.45572263 -0.47317925 -0.059590116 -0.83051485
5654 0.53516644 0.15780081 -0.21572225 0.04551646 -0.27356926 -0.12679361 -0.063128665 -0.040157497 0.7395223 0.36641374 -0.54189146 0.9112561 -0.47081432 0.30330765 -0.55894417 0.51452583 0.36265805 0.048725516 -0.6566229 0.780188 0.393255 0.16990829 0.7754539 0.3381463 0.19386247 0.23390742 0.69376296 -0.3991282 0.47291392 -0.14592399 -0.5655359 -0.3381654
1842 0.47950003 -0.58513093 0.31835067 0.025791869 -0.34298694 -0.42177704 -0.38795552 0.2568093 1.0784082 1.0726157 -0.56555283 -0.1100007 -0.67408085 -0.15486336 -0.5884233 -0.5321426 0.12098635 0.28108487 0.18057631 -0.56519884 0.3521803 -0.32418162 -0.33426073 -0.08894539 -0.4609741 -0.23188093 0.054176494 0.35634544 0.39049017 -0.1654862 -0.5925573 0.10474191
6193 0.8687626 0.15856238 0.025787687 0.31935936 -0.16039707 -0.18347721 0.01362272 -0.09156657 0.5393189 0.53775936 -0.45886686 1.0435711 -0.80792564 0.30939993 -0.37022963 0.6356103 0.52852595 -0.2197487 -0.30926177 0.4384781 0.29337406 -0.020089595 1.0227258 0.15377624 0.06235334 0.3177798 0.55417806 -0.09324369 0.5848733 0.24005999 -0.47984 -0.25038803
4655 0.56049377 0.052475177 -0.086526126 0.10612464 -0.24850632 -0.095317565 -0.15777268 0.14963867 0.8280523 0.21937029 -0.5637403 0.6884548 -0.407436 0.63130563 -0.55435324 0.52035654 0.5264337 0.124849394 -0.4202603 0.71772593 0.23878881 0.051594768 0.811911 0.21127003 -0.052894216 0.52411866 0.65776783 -0.39265445 0.446752 -0.2699373 -0.41558915 -0.24445316
1099 0.9533255 -0.09607308 -0.11814752 -0.01890459 0.21990341 -0.4779644 0.09871216 0.14203776 0.61374277 0.9108082 -1.6682086 -0.38113102 0.45522892 -0.22324468 -0.51515675 0.40038562 0.23395103 -0.29327536 -0.19263701 0.80492324 0.29696015 -0.11088656 0.17408648 0.10972826 -0.26529005 0.095882885 0.21912138 -0.09579254 0.26620987 -0.21363692 0.14642513 -0.12608467
5753 0.90601194 -0.6641694 0.21642238 0.12937397 -0.39748383 -0.6590624 -0.23414649 0.113428384 1.0124265 0.8188536 -0.004729696 0.0780563 -0.4352344 -0.070601724 -0.060579658 -0.56902534 0.25937146 0.589313 0.21641661 -0.8394362 0.39275062 -0.11025044 -0.43433222 0.2531468 -0.78123415 -0.06754761 0.37581423 0.017015615 0.055623002 -0.1856161 -0.84577745 0.20647931
2266 0.6429541 -1.2243289 -0.3175426 0.30681777 -0.15828662 -0.8358165 0.25484893 -0.16867355 0.7896534 0.6586107 -0.40049168 0.090880945 -0.16959648 0.264101 -0.20570466 -0.3410095 -1.1691006 0.85459244 0.074542545 -0.35069433 0.88969296 0.24462178 0.25161135 0.7449125 -0.50905776 -0.21382727 -0.33775404 -0.36208013 0.2888993 0.54244286 -0.30248168 0.5246754
7983 0.41653755 -0.47591496 0.17281464 0.17210889 -0.42674965 -0.5264765 -0.25968325 0.31175688 1.0826716 1.063778 -0.41459435 -0.26319522 -0.48795807 -0.015505661 -0.5228514 -0.5015714 0.24100645 0.3364136 -0.16945411 -0.73985064 0.41784918 -0.17733812 -0.26807997 -0.20128392 -0.48283434 -0.21529813 0.22206986 0.29973724 0.15122789 -0.09138238 -0.79336077 0.21440318
1511 0.94784135 0.0806721 -0.23348962 0.23432027 -0.4093409 0.012774764 -0.483653 -0.2687683 0.82526076 0.15723228 -0.4409862 0.9708131 -0.42490628 0.4107924 -0.39081043 0.80299747 0.15161563 0.03659908 -0.25496718 0.52153796 0.14405197 -0.030567896 0.9347768 0.21435837 -0.29336372 0.5176461 0.9091284 -0.34253517 0.12602368 0.43432856 -0.4700223 -0.5717196
1171 0.37870845 -0.47436914 -0.597107 -0.48386946 -0.58422315 -0.18037944 0.3845138 -0.3639577 0.09160798 -0.075779974 -0.9825424 0.62555134 -0.19307253 -0.7584008 -1.0506777 -0.1736031 0.098289035 0.47337684 -0.06434714 -0.17460023 -0.068923555 -1.1242796 -0.025347382 0.10945601 0.07010098 0.52747214 0.27973312 0.4917004 0.078691594 -0.3229015 -0.27623266 0.026409274
2241 0.5703407 -0.58065057 0.30921778 -0.07526595 -0.36227572 -0.31291345 -0.28052145 0.2183617 1.1507127 0.74796253 -0.6041873 -0.11744809 -0.5003996 -0.009845614 -0.538121 -0.46693388 0.2313342 0.57305485 -0.037755724 -0.3623805 0.5345778 -0.2859096 -0.38233098 -0.0020484682 -0.49103242 -0.13893044 -0.1553026 0.4566503 0.32857394 -0.2957312 -0.8623761 0.09958914
9 1.0538311 0.4766888 -0.2889915 -0.12649691 -0.2667176 -0.26347935 -0.3710246 -0.31893733 0.8387954 -0.17427005 -0.5730841 0.97127813 -0.57640415 1.1569258 -0.499153 0.47611147 0.29005712 0.10146591 -0.42613152 0.3449264 0.4425878 -0.3272318 0.8371705 0.18423662 -0.26873177 0.40397033 0.6451584 -0.41632268 -0.21973091 0.4037542 -0.1302029 -0.09070412
448 0.9407142 0.26893923 0.12639679 0.35726815 -0.44067064 -0.250678 -0.114156045 -0.15639791 0.7077352 0.45679364 -0.6371038 0.8274362 -0.6439981 0.5155682 -0.3859537 0.8768662 0.57280326 -0.3016668 -0.52549905 0.40133834 0.27216092 0.04670115 0.892344 0.28989017 0.047782928 0.18399411 0.5558561 0.050432973 0.3396069 0.28602093 -0.36584306 -0.3027558
1857 0.5974984 -0.55334514 0.34141833 -0.15253279 -0.3135124 -0.41338474 -0.060885705 0.042766 1.0813056 0.97452265 -0.431973 -0.11534468 -0.39075774 -0.027817471 -0.3956523 -0.49041933 0.028773779 0.66134745 -0.13168117 -0.5130629 0.4803402 -0.05890357 -0.4175987 0.049441088 -0.51129544 0.0045226053 -0.14640233 0.2818242 0.45791563 -0.29576868 -0.6398702 0.37799722
1989 0.34595773 -0.6749026 0.34165692 0.01823517 -0.28287792 -0.68239707 0.08196225 0.21764392 1.229655 0.9012956 -0.42728338 -0.22550467 -0.21490662 0.14945169 -0.23493816 -0.3918566 0.30777827 0.57782936 0.062373877 -0.4839954 0.5128895 -0.33459467 -0.37400144 0.49258772 -0.5746276 -0.20657633 0.091527745 0.4781484 0.46926987 -0.17619827 -0.61477375 0.27918333
2978 0.32261842 0.38087797 0.07294986 -0.18869078 -0.9347135 -1.002482 0.103640705 -0.5234721 -0.006942721 0.06603597 -1.4576478 0.8097795 -0.13780172 -0.9144263 -0.21001098 0.3018798 -0.65746534 0.6533341 -0.038002823 -0.80857146 0.14827469 -1.400512 0.68945295 0.53072196 -0.062771596 -0.048899513 -0.19495286 0.28857008 -0.7336069 0.18242745 -0.1955867 -0.22659883
5277 0.8013392 0.20173176 -0.09954324 0.19901422 -0.31704667 -0.16826786 -0.1577147 -0.09378274 0.99276394 0.38673472 -0.4553493 0.85460734 -0.68996745 0.38367274 -0.25484753 0.65505975 0.5796062 -0.26754463 -0.55032617 0.5432654 0.2139091 -0.25569737 0.84594446 0.33506885 -0.047708377 0.15769285 0.65319383 -0.24209733 0.24008067 0.103666216 -0.48938894 -0.18227932
5309 0.5606341 -0.69121015 0.28771874 -0.0031790792 -0.42766768 -0.5011875 -0.13378282 0.093382284 1.1674088 0.8021909 -0.45307878 -0.10714666 -0.32805732 0.17276254 -0.3034095 -0.67506033 0.30568683 0.6876259 -0.06518244 -0.49026394 0.58420634 -0.23790619 -0.44747442 0.028719423 -0.27918565 -0.22419171 0.058052048 0.39441243 0.3676083 -0.17568295 -0.7295243 0.13679394
6883 1.0570242 0.47088853 -0.3851409 -0.1844346 -0.1650019 -0.21504836 -0.18558924 -0.40000242 0.740549 -0.050571557 -0.5827742 0.654455 -0.29871038 0.93013364 -0.44045338 0.32769898 0.2909863 0.14643629 -0.40537107 0.52837336 -0.017427731 -0.15901586 0.9389746 0.3500993 -0.18194243 0.73050874 0.76923764 -0.54983455 0.08052672 0.120157674 -0.37594628 -0.1400153
4506 -0.031507898 -0.5246797 -0.34256062 -0.08855967 -0.758492 -0.21698903 0.3117182 -0.31013814 -0.12737206 0.14846645 -0.94241947 0.4079741 0.124584325 -0.5579792 -1.201462 0.044843778 -0.07790188 0.69100684 -0.018984573 -0.6988438 0.1353326 -1.1090972 0.5300796 0.36809373 0.030593779 0.6848173 0.29947355 0.3184768 -0.036911573 -0.16654396 -0.01733751 0.3325421
2622 0.56114274 -0.9918543 0.09696376 0.2034827 -0.27407268 -0.60407895 -0.3840663 0.45887566 0.76829374 0.6331113 -0.6846551 -0.02482378 -0.51322895 0.24080668 -0.43422797 -0.64438826 0.25173426 0.34696287 0.25003356 -0.39914167 0.10366041 -0.5349475 -0.79973423 0.10973577 -0.078462794 0.37652424 0.20469888 0.21942022 0.65428734 0.05005595 -1.0900348 -0.014250488
74 0.5621259 -0.62188774 0.37223357 -0.1746131 -0.4086657 -0.53604656 -0.21391311 0.22270727 1.1088538 1.011995 -0.41370964 -0.07590053 -0.7764601 0.069085084 -0.34286404 -0.5742205 0.09206198 0.42921022 -0.11596927 -0.46130273 0.40976325 -0.15576357 -0.31024858 0.061061528 -0.43162015 -0.31052068 0.20329146 0.41637212 0.3107593 -0.17271394 -0.757224 0.05002231
5910 0.5351389 -0.5683294 -0.05560588 -0.15099162 -0.41517743 0.16298121 0.31144646 -0.13636917 0.13678627 0.38055775 -1.0719037 0.30603334 0.035434946 -0.79626524 -0.9089903 0.052705314 0.26359788 0.58374465 -0.18674624 -0.38654387 -0.29133898 -0.7619307 0.3757013 0.23831779 0.490277 0.8684231 0.18463695 0.015479263 -0.117482856 -0.5271048 0.32477617 0.39047736
4411 0.65098065 -0.91378176 0.10356062 0.07550373 0.109120026 -0.7180718 0.34672964 0.2776833 0.9356351 0.8560888 0.15491411 -0.5029991 -0.5703314 -0.14116831 -0.46949726 -0.44071838 0.25907117 0.811848 0.45663506 -0.716441 0.49933165 -0.09650968 0.36762163 0.0071944715 -0.54460937 0.38094285 0.0034102707 0.38772598 0.5180617 -0.07141934 -0.6854997 0.4132406
8092 -0.08834034 -0.57992333 -0.47481042 -0.10506522 -0.86716276 -0.22974233 0.47384053 -0.4481765 -0.21003525 0.4712637 -1.019864 0.39910167 0.1474787 -0.477027 -1.3126173 0.02019657 -0.102275126 0.47794437 -0.13881324 -0.6866391 0.04948237 -0.9415016 0.60466605 0.2604712 0.029398717 0.633913 0.19300286 0.3224798 0.020726629 -0.2903716 -0.05806234 0.5096175
6676 0.8135787 0.3177212 -0.13784222 0.6126329 -0.5138777 -0.26553926 0.3150483 -0.015573508 0.6116884 0.45517042 -0.8606533 1.1156757 -0.5336956 0.6247446 0.087863855 0.29763177 0.3422634 -0.14991093 -0.12240404 0.73922336 0.20551993 -0.14834611 0.6921785 0.2673933 0.41478395 0.24841712 0.5543876 -0.35206097 0.62102646 0.3862542 -0.2854688 -0.0412506
5452 0.74929655 0.112111345 -0.22260922 0.42268565 -0.35891503 0.12979685 -0.540282 -0.096515045 0.98955 0.21523595 -0.4019783 0.8833277 -0.5060866 0.5988889 -0.4466166 0.6915742 -0.029076304 0.10020802 -0.24089567 0.30288622 0.086081706 -0.29773793 0.9760221 0.21326591 -0.20796342 0.6162231 1.0887744 -0.3917231 -0.0445681 0.51437485 -0.4030993 -0.6460141
7013 0.6953495 -0.6271881 0.19440454 0.17774297 -0.1521864 -0.7231783 -0.3458603 0.36720154 1.2783997 0.5889589 -0.36474273 -0.07397253 -0.51510656 0.052055083 -0.3727973 -0.38657215 0.20816757 0.65443075 -0.02254322 -0.60212404 0.38279894 -0.25938895 -0.45830563 0.18697336 -0.49927056 -0.18337037 -0.04812353 0.36468548 0.44409087 -0.13214749 -0.8017055 0.15213157
4658 1.0377507 -1.0676417 -0.07650221 0.16642064 -0.028874943 -0.91815 0.5585468 0.044190418 0.6363607 0.7475339 -0.5442476 0.09394192 0.110315725 0.5690647 -0.13852614 -0.16613925 -0.83115005 0.9214128 -0.056531515 -0.2997746 1.2261457 -0.11112825 0.58149105 0.65284985 -0.18821314 -0.77421856 -0.40815118 -0.3194563 -0.09135304 0.092768736 -0.17814286 0.2927489
5420 0.60458475 -0.4004042 -0.09533202 -0.868476 -0.5946637 -1.0588677 -1.3508233 -0.22677352 0.19968292 0.63898456 -1.1382244 1.228505 0.12509398 -0.23740454 -0.20665611 -0.40739113 -0.54451317 0.57137436 1.3940102 -1.2109767 0.041239753 0.67674845 1.7838985 0.916194 0.11919013 0.17295247 0.6497679 -0.10880894 0.2302151 0.6582086 0.18910514 0.26960093
5906 0.97726816 0.1436693 0.3281241 0.28165057 -0.23420653 -0.2760578 0.06606087 0.088352755 0.6626389 0.4264085 -0.5239656 0.86706346 -0.7062345 0.43396953 -0.44457805 0.7546859 0.42649898 -0.26897147 -0.49955127 0.49163595 0.07835773 0.03876671 1.0874046 0.17900181 -0.025457399 0.36515796 0.4700988 0.031858776 0.5458951 0.20791626 -0.401454 -0.28368413
5783 0.44802606 -0.48838645 0.26171973 0.04911391 -0.053459033 -0.40179953 -0.5727838 0.18782052 0.7981723 0.97971857 -1.2280927 -0.6622986 -0.3357506 -0.042606037 -0.69732225 -0.46088487 0.3579306 -0.08802579 0.24945422 0.1368505 0.31729648 -0.039535083 -0.40597814 0.11609972 -0.20951426 0.025349272 0.17057197 -0.16084231 0.4272628 -0.09831269 -0.59346026 -0.5567965
573 1.2127712 0.3726907 -0.122111194 0.5359728 -0.48096833 -0.20170653 0.01467742 -0.064564705 0.7686414 0.6521153 -0.4983252 1.1088376 -0.5197273 0.27211517 -0.19487588 0.58749044 0.74525845 -0.2748015 -0.23501162 0.4692318 0.30767652 0.030303663 0.87762153 0.19936854 0.18136463 0.13191578 0.38295007 -0.14773868 0.45016217 0.30012488 -0.109567665 -0.2413396
6530 0.2866635 -0.36680442 -0.41830203 -0.25437132 -0.70669657 -0.13916217 -0.023701768 -0.34446523 -0.09478184 -0.053003974 -1.1031964 0.35176638 -0.06576749 -0.91822755 -1.2843382 0.062252 -0.0925165 0.526277 0.0015334373 -0.45174205 0.14659111 -1.022303 0.3091921 0.17468706 -0.07166889 0.58627456 0.30809343 0.34467122 -0.31852654 -0.21084902 -0.53665775 0.32164612
8270 0.8965786 -1.0393769 -0.5245028 0.28298524 -0.17232446 -0.9898025 0.33601543 -0.041197374 0.7597309 0.55193543 -0.7801518 -0.26422694 0.15055817 0.59003466 0.1345389 -0.37124372 -1.0109038 0.93452895 0.07274442 0.08308857 0.5898661 0.1617476 0.60548824 0.5832604 -0.53334564 -0.32555464 -0.36192256 -0.0019243555 0.17324792 -0.01898513 -0.26979855 0.3822263
6186 0.9117484 -0.11048404 -0.22962952 0.26525038 -0.34156084 -0.007528342 -0.23659539 -0.22625153 0.95391524 0.2808961 -0.37481084 0.60708517 -0.48894662 0.27555254 -0.36625463 0.67183316 0.25452825 0.0080830725 -0.20519301 0.70934373 0.2060744 0.116812386 0.9230219 0.19810145 -0.057193063 0.20569016 0.88084763 -0.5445491 0.11626176 0.21697545 -0.49921513 -0.49095562
4488 0.86564595 0.41141286 -0.4944893 0.5043651 -0.42238852 -0.32559863 0.11384085 -0.40298915 0.6882948 0.35332322 -0.75445366 0.95335925 -0.76422524 0.8937772 -0.20832755 0.47337228 0.066129036 -0.1542249 -0.25886092 0.32690424 -0.26554027 -0.19082129 0.7004247 0.27108926 0.12687205 0.4908776 0.72102976 -0.31860992 0.25717202 0.5788401 -0.18748236 -0.10169541
4819 0.21602698 -0.4299301 -0.42072108 -0.15400046 -0.71029407 -0.2650101 0.18890505 -0.14058077 -0.031508088 0.03972825 -1.2435834 0.5362438 0.027512543 -0.7196089 -1.1976169 -0.029377693 -0.08650945 0.3863707 0.102971874 -0.5000583 -0.07405051 -1.0997609 0.1364052 0.22791585 0.27451837 0.3247557 0.13177316 0.4133789 -0.120712385 -0.26664755 -0.4198199 0.27781704
627 0.14017768 -0.25300834 -0.48270196 -0.1423026 -0.8587866 -0.12410765 0.20603363 -0.24864942 -0.062031057 0.15768352 -1.219294 0.34773228 -0.11306414 -0.75943595 -1.13722 0.006139779 -0.19885227 0.48859304 0.012646684 -0.42427662 0.02126726 -1.0868704 0.109908484 0.318828 0.07129032 0.46373433 0.2164971 0.574656 0.007418092 -0.21449108 -0.5001004 0.34691104
6837 0.9218394 0.5430855 0.32907513 0.50204575 -0.6318654 -0.44423944 -0.3127192 0.07174854 0.5950356 0.33229187 -0.7950027 0.94882387 -0.5784867 0.27855375 -0.24675047 0.6605216 0.67994237 -0.37344524 -0.27469733 0.57474583 0.2754293 -0.04906846 0.72685206 0.28393245 -0.17174332 0.33391067 0.843598 -0.18495885 0.05681761 0.19820212 -0.28999808 -0.13003956
589 0.8308103 -1.1261016 -0.25840813 -0.024858056 0.04045328 -0.67984194 0.4482461 0.030685611 1.0613283 0.9649894 -0.26802754 -0.0943733 -0.3228642 0.24010454 -0.054025218 -0.46225175 -0.28963742 0.76637805 -0.06721994 -0.45722556 0.64229983 0.22196817 -0.1232506 0.4838367 -0.38116962 0.028932061 -0.29675347 0.06432132 0.3130681 -0.013450386 -0.57807326 0.5911027
1257 0.6092497 -0.6447453 0.12123718 0.41771513 -0.49988353 -0.5480728 -0.24935879 0.41804314 1.2482226 0.6770273 -0.5610166 0.13546073 -0.4125148 -0.079079434 -0.23565614 -0.6366254 0.26519755 0.5870469 0.09412488 -0.32472733 0.298997 -0.4152529 -0.5774532 0.23465724 -0.27971774 -0.3334889 -0.12923801 0.39695358 0.2886614 -0.08423013 -0.72669727 -0.08280009
6827 0.8700298 -0.5908152 0.49579325 -0.40995413 -0.25299537 -0.5636817 0.014861713 0.31126058 0.82414466 0.5109369 -0.334651 -0.06709177 -0.9267407 -0.096324034 -0.20587748 -0.4914996 0.4226238 0.9703026 -0.22180519 -0.74592537 0.3066324 0.022989867 -0.08224236 0.170686 -0.8858678 -0.211049 0.5465031 0.49091265 0.6647421 0.09568826 -0.46291223 0.093150444
3767 0.116734155 -0.15638477 -0.17860855 -0.21564148 -0.6251559 -0.20880632 0.035815522 -0.42808667 0.0750236 0.095355235 -1.2074656 0.33443603 -0.12826717 -1.0960649 -1.3136594 -0.08226101 -0.11790972 0.14717425 0.13062342 -0.4314953 0.08359424 -0.8996517 0.104858786 0.44876295 -0.07056874 0.036841102 0.32738614 0.28423622 0.03431461 -0.18708882 -0.33451858 0.3026937
6422 0.35922435 -0.12805212 -0.18909334 -0.08453172 -0.6946101 -0.21255891 0.021307189 -0.39059204 -0.07326796 0.22888644 -1.1983513 0.39440632 -0.1372582 -0.8571745 -0.85125566 0.07977159 -0.15415417 0.3530756 0.051423576 -0.5574706 0.09116699 -1.2889373 0.2785104 0.24742186 0.16218449 0.51263446 0.030378386 0.54998386 -0.43701068 -0.060451917 -0.1229786 0.23350227
7896 0.7262264 -0.55695647 -0.08607621 -0.4489249 -0.8180107 -0.8586898 -1.4685488 0.085140236 0.4051653 0.28155386 -1.2949345 1.0386553 0.42223597 -0.11604193 -0.008707765 -0.17967923 -0.53093165 0.30427086 1.449427 -1.1024939 0.37144768 0.61776716 1.5221716 0.3239818 0.19602591 0.2434553 1.0063673 0.28496313 0.060144253 0.39375737 -0.13003772 0.25905663
7100 1.0577997 0.52311 -0.32924166 0.8178347 -0.6732181 -0.24568783 0.21510693 -0.41627523 0.66963714 0.2823101 -0.8359079 0.69414604 -0.58590907 0.8484522 -0.3273129 0.12046183 0.18836679 -0.44898927 -0.43468085 0.23430365 0.14638703 -0.0034496724 0.8166236 -0.019090457 0.09503339 0.44230658 0.7636763 -0.100911185 0.32829267 0.70043975 -0.10771938 -0.14561404
2356 0.6661076 -0.5659403 0.30341372 -0.11469802 -0.06737193 -1.1343125 0.048532024 0.18415824 1.4798752 0.5642048 -0.1696856 0.05762884 -0.24831665 0.0059045632 -0.3444817 -0.57212496 -0.16412932 0.8216964 0.22962636 -0.66372305 0.038640473 -0.18831983 -0.46252397 0.44892207 -0.6351398 0.07848689 -0.11000979 0.36220002 0.19576511 0.3179569 -0.96448535 0.10845622
2462 0.83415115 -0.52914673 0.18042432 -0.027646683 -0.2778105 -0.6292637 0.039639942 0.578308 0.8802958 0.36337957 -0.35121065 0.14664096 -0.90286934 -0.24957456 0.029065285 -0.7295951 0.66015637 1.049692 -0.109507725 -0.554483 0.17046525 -0.14758877 -0.2200927 0.40393245 -0.7624421 -0.07425089 0.52749956 0.31487396 0.49470824 0.254208 -0.54768765 -0.030685361
3893 0.6263435 -0.89032525 -0.038294237 -0.31313086 -0.22557943 -0.590831 -0.22827464 0.1358182 0.77967376 0.8294468 -0.42900488 -0.23056042 -0.659868 0.008806446 -0.4528514 -0.37031153 0.18916184 0.16924739 0.18254071 -0.24847123 0.26028034 -0.34176713 -0.7126834 0.26474705 -0.42648482 0.39178059 0.10654065 0.29934338 0.2517099 -0.20504992 -0.93806857 0.0708275
1832 0.6545629 -0.50429124 0.3497464 -0.2043747 -0.44742846 -0.17481592 -0.33515915 0.18049169 1.1209 0.85709226 -0.6802421 -0.067094386 -0.4338985 0.06242808 -0.52045625 -0.6100102 0.15361486 0.4435041 0.012582388 -0.51066756 0.37606147 -0.19567476 -0.48512653 -0.05604402 -0.52776015 -0.032772753 -0.15135455 0.27992237 0.5379312 -0.180903 -0.7097754 0.28581548
1326 0.5835044 -0.40826014 -0.17646268 -0.061585743 -0.4832037 -0.3460546 -0.077036776 0.13409916 1.1463891 1.0266407 -0.31577185 0.1648532 -0.21173431 0.045175575 -0.2138519 -0.51934 0.09110464 0.87923515 0.14826564 -0.5962619 0.10274065 -0.21207573 -0.66779727 0.15222245 -0.5941267 -0.24388236 0.29209188 0.20906642 0.3299697 -0.28077438 -0.81041056 0.10560547
2286 0.7475673 -0.01982817 0.31693205 0.032128107 0.55203176 -0.319534 -0.1463794 0.25349888 0.5639741 1.0684555 -1.2793171 -0.07352138 0.34771556 0.027659178 -0.38847098 0.2623271 0.55819273 -0.06771706 -0.20869689 0.7000036 0.020748274 -0.24658662 0.45716968 0.2081216 -0.22830395 0.40359694 0.32078087 -0.08034942 0.43322012 -0.25508273 -0.63874435 0.17673601
6531 0.46343845 -1.080745 -0.4133862 0.50888205 -0.6608891 -0.91707623 0.4050075 0.38179648 0.7931154 0.96951 -0.15283051 -0.008011393 -0.0782683 0.22258714 0.044133924 -0.33549967 -0.96833163 0.8150895 -0.3219665 -0.5143754 1.0017654 0.062205315 0.7332056 0.44370177 -0.7006599 0.33790323 -0.6605017 0.008061687 0.40402648 0.26345688 -0.4528456 0.21596265
4996 0.56234705 0.08770479 0.10169428 0.23800045 -0.32023776 -0.089810684 -0.16247603 -0.16419584 0.8355474 0.51090705 -0.7444395 0.9153924 -0.59631515 0.44889823 -0.452391 0.9456846 0.5452585 -0.347892 -0.53207016 0.40199926 0.12659067 0.14964023 0.8376376 0.27520677 -0.3231302 0.35899457 0.4998894 -0.12434477 0.30545136 0.399193 -0.21309778 -0.049891986
7003 0.7975798 -0.05597016 -0.16143088 0.021470917 0.34697625 -0.175057 -0.053074997 0.076507695 0.5018878 0.78181773 -1.1503044 0.07554188 -0.24670932 -0.11445589 -0.7154705 0.13110903 0.6997829 -0.2822819 -0.18939398 0.60214067 -0.030563356 -0.016807362 0.33272272 0.39375612 0.043584477 0.026772683 0.27576363 -0.54219 0.20869 -0.1783121 -0.17542636 -0.14414753
4688 0.79898584 0.39969918 -0.54247767 0.035744973 -0.073446065 -0.7396571 -0.1808087 -0.5912381 0.5508037 0.008481056 -0.599506 0.94116235 -0.82599396 1.0082836 -0.31043002 0.12784863 0.09253591 0.17144004 -0.42995492 -0.111787565 0.08667547 -0.2868693 0.8604586 -0.30766737 -0.031690743 0.6775246 1.052774 -0.76166934 0.2047267 0.69851434 -0.17535052 -0.13908882
1908 0.7300412 -0.007242523 7.5560834e-05 0.5799686 -0.13248107 -0.1487485 0.104751304 -0.032262396 0.5798278 0.34724638 -0.671752 0.7798085 -0.89038575 0.04595209 -0.22414814 0.40248483 0.73694974 -0.1871035 -0.5571738 0.48482823 0.32436076 -0.18035828 0.8074364 0.18478158 0.24405785 0.23444039 0.5445017 -0.19325952 0.57404697 -0.057759263 -0.4311816 -0.19639812
4653 0.44139552 -0.15224774 -0.35619044 -0.19962925 -0.74736655 -0.046178244 0.008992384 -0.4139731 -0.022065815 0.11876756 -1.1916596 0.377656 -0.1399515 -1.1334926 -1.1284895 -0.07478603 -0.06463198 0.52495104 0.0760728 -0.40057012 0.038632706 -0.97538203 0.3218213 0.25608742 0.25846928 0.27953374 0.11189895 0.27898744 0.096269526 -0.2720729 -0.21149522 0.38622665
1783 0.73053706 0.2664543 0.055712666 0.4996238 -0.059778713 -0.3679257 -0.37890032 -0.10034544 0.6245356 0.33002818 -1.0558776 0.7213887 -0.38707244 0.006267131 -0.090150476 0.7376558 0.97322935 -0.2707245 -0.65223926 0.33686236 0.3110104 -0.16154529 0.35949087 0.34988427 -0.08098159 -0.11210091 0.6869063 -0.2261802 0.16693045 -0.12561503 -0.30784804 -0.36548874
3230 1.0968484 0.1715339 0.17624815 0.34194776 -0.5316487 -0.24790582 -0.3339461 -0.06896995 0.7839731 0.26058877 -0.5793975 0.82277024 -0.49979815 0.6342181 -0.44410256 0.83750284 0.28506297 -0.03429133 -0.37636593 0.56698084 0.043576814 0.10970279 0.96464276 0.17109218 -0.041629847 0.41614056 0.61117595 -0.13420324 -0.08172263 0.42568627 -0.4744094 -0.46276134
3539 0.6555805 0.13663319 -0.13339724 0.31644097 -0.028286958 -0.20423391 0.06010729 0.024211178 0.8083381 0.23376517 -0.44181862 0.93281525 -0.64579725 0.24316512 -0.36450443 0.24188879 0.39312598 -0.07381726 -0.5764939 0.63401127 0.36534208 -0.12237878 1.0141536 0.4290004 0.1719949 0.34880048 0.42979184 -0.27372414 0.6546222 -0.10366341 -0.60769975 -0.5675764
2144 0.63029283 -0.39889202 0.010253361 0.015610868 -0.36103448 -0.28547585 -0.15951806 0.21367948 1.2579439 0.74478847 -0.51920134 0.16379875 -0.46915287 -0.13507558 -0.40005374 -0.68956274 0.13703549 0.66769826 0.17762433 -0.5191795 0.3955252 -0.21654786 -0.53256905 -0.061005864 -0.5247356 -0.25772724 0.03433302 0.27208418 0.4011228 -0.25051352 -0.882121 0.060983103
1248 0.66564626 -0.9577599 -0.018548341 -0.058064424 -0.1363143 -0.8664489 0.08348958 0.10092747 0.96634966 0.6017536 -0.20616248 -0.39672774 -0.22643849 0.7560057 -0.37915698 0.018325422 -0.4326598 0.9893091 0.008842873 -0.32670808 0.5646117 -0.12454384 -0.26335904 0.3848101 -0.59242976 -0.49429193 0.08521411 0.23145331 0.34173983 -0.3092201 -0.6498898 0.2041851
1916 0.12406302 -0.40007174 -0.36968768 -0.22336444 -0.7265628 -0.2993185 0.5333245 -0.17364775 -0.078746475 0.21188055 -0.81232584 0.35923952 0.08221744 -0.6587547 -1.1972083 0.07611754 0.056227416 0.6560936 0.16660742 -0.71991616 0.11612318 -1.0924138 0.5207434 0.25708285 -0.0031289384 0.7328102 0.090655275 0.2838927 -0.059141662 -0.21019174 -0.17767358 0.23547287
8353 1.1978298 0.46749574 -0.112104535 0.0083259195 -0.4352585 -0.37979022 -0.22022115 -0.24191794 0.8166897 0.12634681 -0.4873688 0.9256401 -0.53077334 0.9420138 -0.47079992 0.45946997 0.38618988 -0.20350263 -0.44105247 0.48784983 0.23441552 -0.16506538 0.8859988 0.20540333 -0.2813231 0.6329941 0.5140225 -0.2917911 -0.10275095 0.5736412 -0.23237233 -0.12567998
2529 0.8850997 -0.5523107 -0.11558215 0.2517545 -0.31967556 -0.9509765 -0.101974785 0.3814168 1.287215 0.4633213 -0.15688759 -0.0349635 -0.3747556 -0.1696585 -0.15479982 -0.63978547 0.35848337 0.5394648 0.23005804 -0.5565155 0.37318194 -0.4216186 -0.4823259 -0.0091087 -0.18933764 -0.14033906 0.100753956 0.32557324 0.45983794 -0.23238759 -0.7602437 0.17690665
1818 1.1076188 -0.40497938 -0.2894639 0.05460232 0.3585057 -0.9813031 0.3757467 0.32834718 0.6164006 1.0002258 -1.4243797 -0.31772992 0.8282877 0.17332877 0.06436451 0.25248745 -0.50824165 0.12973933 0.12865812 0.5944936 0.9879297 -0.013002012 0.46405745 0.6009394 -0.32997307 -0.18597355 0.17603539 -0.15394516 -0.03747469 -0.42572874 -0.29256806 -0.395097
3710 0.9624057 -0.9862624 -0.5476052 0.23126787 -0.0139441155 -1.0291232 0.3512678 -0.10252789 0.6953299 0.69411844 -0.69243133 -0.31434536 0.065005526 0.43862098 0.09723912 -0.37843674 -1.0187811 0.7873889 -0.06314613 -0.11445611 0.56771284 0.26387563 0.61060256 0.71714354 -0.5157598 -0.23168632 -0.33238137 -0.23747359 0.38013044 -0.14975567 -0.30774513 0.44344467
341 0.5725911 0.2077079 -0.21295586 0.15548812 -0.2071607 -0.33927494 -0.19170855 -0.060465567 0.895542 0.65850794 -0.66773796 0.5606681 -0.46069077 0.18041267 -0.16508642 0.04792735 0.48297524 -0.27900496 -0.9182476 0.74117225 0.1793046 -0.2297195 0.5306207 0.14505723 -0.1442935 0.29309392 0.7476556 -0.64045966 0.31886315 0.17826131 -0.11843125 -0.16454576
4695 0.29454622 -0.31459442 -0.5698651 -0.23230024 -0.84667426 -0.048836835 0.26327232 -0.34711236 0.1320123 0.05189793 -1.1699691 0.27283856 -0.07827919 -0.9294948 -1.2768301 -0.037517253 -0.060826395 0.381619 0.019211967 -0.5412036 0.123618945 -0.8787181 0.14630137 0.1742532 0.13251176 0.4472204 0.315626 0.5526834 0.11989858 -0.22833402 -0.2777123 0.4737916
4953 -0.06320635 -0.3798335 -0.39417365 -0.1456255 -0.86496985 -0.3006117 0.4957005 -0.28240073 -0.12976344 0.2085865 -1.082121 0.3732774 0.03437188 -0.6196017 -1.441144 0.15092973 0.11638471 0.7075372 0.14233637 -0.7196949 0.022359597 -0.85726947 0.54561925 0.25052533 0.14147769 0.7682132 0.34089574 0.19221279 -0.015569696 -0.2425946 -0.19709107 0.3748607
4588 0.18942921 -0.49686995 -0.4719045 -0.100484304 -0.71353567 -0.17477009 -0.08607434 -0.30063623 -0.0043997257 -0.051235013 -1.1275315 0.30535573 -0.019154793 -0.8329767 -1.3368859 0.06703941 -0.17097196 0.36038646 0.020502232 -0.4024869 0.029978292 -0.9279069 0.18853623 0.15008228 0.12283632 0.576084 0.243057 0.49636158 0.14773796 -0.3940558 -0.5001048 0.18259269
6003 0.61238325 0.042244438 0.06211318 0.022870304 0.37452993 -0.26566628 -0.13807803 0.33686805 0.787482 0.68362826 -1.1528066 0.12241999 0.010105788 0.3846746 -0.6070011 0.28652674 0.5724254 -0.057287697 -0.20379528 0.5157233 -0.49886826 -0.20351154 0.40717766 0.20466708 0.069664024 -0.0046819453 0.51420224 -0.41628718 0.51508987 -0.48184043 -0.5738776 0.31851113
1203 0.681318 -0.6802553 0.3718852 -0.14893372 -0.21852936 -0.63424194 -0.14981182 0.35353345 1.2240027 0.7044495 -0.3350808 -0.08891978 -0.5884145 0.09339996 -0.39655524 -0.4311818 0.21791573 0.74205405 0.013774084 -0.49318898 0.47735098 -0.18672936 -0.42656025 0.039806593 -0.43971276 -0.023880692 0.054941345 0.4105396 0.26532122 -0.17519143 -0.8048719 0.24965663
6454 0.99107987 0.13407895 -0.2211633 0.57028735 -0.26792526 -0.2885711 0.016474087 -0.09595565 0.7171976 0.21375823 -0.60343087 0.959702 -0.57559294 0.66034126 -0.31761965 0.7679803 0.56505007 -0.26071653 -0.43263063 0.53570074 0.21553533 -0.22402513 0.72063565 0.3544261 0.0030630399 0.38371855 0.6881367 -0.037784494 0.02272545 0.23847143 -0.44097158 -0.13106637
4922 0.47214007 0.3474637 -0.35309142 0.20305343 -0.29982904 -0.22347118 -0.25301045 0.35725835 0.7944715 0.37238997 -0.6877564 0.9962735 -0.53876495 0.5140273 -0.25623554 0.3663925 0.42152765 0.043017637 -0.6781067 0.70978343 0.28114685 -0.17273015 0.78988034 0.3575126 -0.080403864 0.30900607 0.58577925 -0.44555795 0.118417904 -0.11542234 -0.67359775 -0.504842
5950 0.6403412 -0.6581513 0.06494549 -0.06686739 -0.35598776 -0.83896834 -0.35218036 0.25701806 1.0755361 0.7957051 -0.38039848 0.029369205 -0.52096456 -0.042940468 -0.43026108 -0.5598075 0.22125927 0.5189923 0.20418316 -0.3847746 0.36634013 -0.25579792 -0.58238804 0.044279296 -0.33553755 -0.29404375 0.02680179 0.3323464 0.2358596 0.014516103 -0.8943853 -0.031565458
923 0.15072306 -0.33004507 -0.115955055 -0.20539093 -0.8424986 0.093004525 0.1502532 -0.3353332 0.22097681 0.1150014 -1.1890043 0.5163418 0.014603412 -1.0306323 -1.0858343 -0.0077570346 -0.29148534 0.26503292 0.16643444 -0.45648408 0.04935987 -1.0172014 0.20596202 0.24541031 -0.020956967 0.30759534 0.29350358 0.7137556 -0.21374069 -0.06091869 -0.37960225 0.07681565
1217 0.1788832 -0.62555283 -0.3426305 -0.26150945 -0.5631426 0.009637865 0.35039288 -0.35039648 -0.15593526 0.3220172 -0.771178 0.524661 -0.046381444 -0.6268166 -1.3978711 -0.22362591 -0.12248906 0.6519866 0.1706764 -0.63542634 0.18024996 -0.96684504 0.669385 0.25619674 0.03335438 0.8613434 0.04445638 0.22302811 -0.03671181 -0.15342037 -0.056265276 0.5196698
3670 0.69844925 -1.3653487 -0.2748497 0.24309368 -0.28513715 -0.86901516 0.5915145 0.03735607 0.831059 0.86764514 -0.38112643 0.26690382 -0.17941922 0.30908877 0.056690414 -0.41280413 -1.0796888 0.8131586 -0.1433615 -0.3524473 1.0251853 -0.03800627 0.35749742 0.29659113 -0.31178558 -0.16164462 -0.50114685 -0.101896316 0.22843507 0.20829684 -0.4266815 0.3621604
2600 1.0248072 -0.046627928 -0.103875116 0.10678248 -0.33377033 0.04760477 -0.08670774 0.060889132 0.9501972 0.15573958 -0.38666025 0.88378435 -0.5424262 0.49818322 -0.4226213 0.45717376 0.37470767 -0.051577803 -0.44399092 0.60485935 0.08388065 -0.0512115 0.83835256 0.12180587 -0.14867021 0.3009176 0.8662471 -0.19970848 0.12406817 0.0793156 -0.28579023 -0.3000116
1268 0.073715866 -0.5167589 -0.15677452 -0.008538811 -0.8704608 -0.2685114 0.342042 -0.3841599 -0.22090904 0.30679908 -0.9533337 0.25596026 0.23086028 -0.56924593 -1.2225335 0.2015867 0.11965909 0.7806005 0.007526478 -0.673183 0.09358577 -1.0067474 0.74785554 0.15851414 0.08341223 0.69531524 0.2748287 0.31256053 -0.010226383 -0.29585528 -0.093401924 0.53242624
5828 0.76642096 0.21258911 -0.19012673 0.09798306 -0.17707902 0.055750333 -0.15878786 -0.46867806 0.66924673 0.39667103 -0.4855773 0.7703745 -0.86353993 0.6654929 -0.3002653 0.40083468 -0.24935192 -0.104206204 -0.2633241 0.14707184 -0.12260898 -0.14062932 1.0606699 -0.09243554 -0.55022854 0.5070531 0.84976226 -0.5066467 0.5165044 0.34448895 -0.51574695 -0.46782094
3044 0.87906617 -0.19014291 0.05436137 -0.19013387 0.78076863 -0.40020642 0.029131124 0.21171764 0.5497566 1.1686567 -1.7685322 -0.124617085 0.4965282 0.09596668 -0.14122748 0.12682754 0.2660072 0.1822165 -0.00053886115 0.6491887 0.3198405 0.06298782 0.40589195 0.26101184 -0.18388332 0.07337829 0.5168635 0.23378044 0.27752787 -0.27471143 -0.2124181 -0.15599264
8219 0.7073537 -1.3640552 -0.22554418 0.121481344 -0.18557078 -0.7988258 0.40006146 -0.34037423 0.9396356 1.0920626 -0.41507855 -0.020620886 -0.13548593 0.45416033 0.10503347 -0.37052277 -0.4077512 0.96653885 -0.036814954 -0.5258231 0.6492044 0.059500378 0.1456412 0.49847242 -0.28265485 -0.33987612 -0.46044344 -0.093409345 0.24209306 0.17352748 -0.24899876 0.4196505
3844 0.53749824 -0.48560578 0.18534406 -0.15856665 -0.41720435 -0.14983223 -0.18642865 0.38873857 1.2502172 0.80675423 -0.60222834 0.1321995 -0.4958746 0.05923782 -0.39713326 -0.66060543 0.19675088 0.5256296 0.07135145 -0.5233381 0.3617588 -0.2661542 -0.3595259 -0.047615997 -0.6386098 0.063514814 -0.14944695 0.5452968 0.46357042 -0.2763323 -0.7229936 0.0057213176
1404 0.7588802 0.365888 0.23432341 0.22528893 -0.16440615 -0.32428855 -0.06958878 -0.1376369 0.70249003 0.2973654 -0.5772925 0.9110512 -0.7297479 0.07111476 -0.55765885 0.62700754 0.40871233 -0.2605912 -0.3104063 0.47004688 0.31398085 0.27219003 0.73494685 0.33825958 0.15552807 0.3058853 0.9882405 -0.36703706 0.31115994 -0.09309534 -0.07642175 0.093036346
3715 0.12958321 -0.6821051 -0.18577692 -0.3103132 -0.8689508 -0.16799712 0.084288776 -0.3511415 -0.040037036 -0.09197263 -1.2314117 0.38517812 -0.06115445 -0.80660903 -1.2723175 0.14244643 -0.18826179 0.26297846 -0.052836213 -0.48290044 -0.09751389 -0.80677485 0.19453579 0.32850334 0.17629991 0.38594344 0.19507061 0.48884434 0.24156553 -0.41735134 -0.62711775 0.12052936
5672 0.26680204 0.3305878 0.37958178 -0.18197155 -1.0114839 -1.0816574 -0.14662954 -0.81521153 0.14192744 -0.0044692555 -1.4179891 0.8404051 -0.019899096 -0.8440622 -0.39483958 0.49419653 -0.9325517 0.4296802 -0.04974454 -0.71403575 0.23331402 -1.4139576 0.682221 0.46124527 -0.26917675 -0.0033122385 -0.33550864 0.2705949 -0.66623324 0.11571402 -0.08786945 0.019933844
7338 0.55642277 0.062225968 -0.050515745 0.1162737 -0.2880126 -0.15052865 -0.17881496 0.12344112 0.75095797 0.43751416 -0.65183115 0.6902578 -0.757628 0.27613604 -0.1722556 0.40167254 0.54543984 -0.10574277 -0.64163023 0.7216564 0.2660705 -0.03055257 0.9039177 0.3812309 -0.0708864 0.32601026 0.629014 -0.41730848 0.5404383 -0.07926826 -0.3780681 -0.2303547
1056 0.6343475 -0.7406727 0.24620466 -0.0585003 -0.22711395 -0.61010593 -0.09006759 0.25399637 1.2832752 0.9333853 -0.17249456 -0.31035683 -0.3391979 -0.034566905 -0.13363181 -0.37340337 0.35441187 0.7998256 0.08287948 -0.38728967 0.5273155 -0.2802688 -0.21826635 0.47359318 -0.5039873 -0.20609556 0.18503436 0.31675798 0.40544915 -0.24800102 -0.5863614 0.09231567
1465 1.0738039 0.33316427 -0.46768236 0.16879994 -0.1695826 -0.46651292 -0.08146416 -0.72830373 0.56235516 -0.06562209 -0.63283974 0.80228746 -0.667858 1.0099864 -0.13485831 0.23178317 -0.056902796 0.1820376 -0.31239673 0.30996117 0.022152364 -0.49566832 0.8906924 0.036924686 -0.1923056 0.93314385 0.873423 -0.7001132 0.22560842 0.76317656 -0.2964401 0.11944764
2738 0.82329273 -0.5324592 0.22593965 -0.12207283 -0.32874072 -0.700243 -0.16038665 0.41364253 1.1665254 0.7316549 -0.22578955 -0.123743445 -0.51498234 0.004060611 -0.060204655 -0.46520028 0.16289178 0.6635692 0.024402646 -0.62929124 0.3162406 -0.28172138 -0.39793506 0.3019329 -0.45680615 -0.17602777 0.21159378 0.27553242 0.23019208 -0.28113773 -0.8210708 0.28947914
7843 0.741861 0.046435557 0.25523725 0.28231794 -0.5224694 -0.04874142 -0.19931495 -0.306334 0.6888243 0.6232822 -0.63772494 0.94813424 -0.5811166 0.6633999 -0.65282327 0.95904803 0.24952655 -0.31457162 -0.4032442 0.40787926 0.013578788 0.12071653 0.7782818 0.3011028 0.049954355 0.37932882 0.6019635 -0.20880814 0.22590487 0.41213834 -0.24327318 -0.309603
4951 0.91326654 -1.1157391 -0.043401245 -0.047834598 -0.13870943 -0.8143702 0.37555787 -0.3243235 0.84033626 1.140024 -0.37336898 -0.005366056 -0.48375946 0.20935924 -0.12440876 -0.23667747 -0.5623986 0.9647437 -0.008199297 -0.48217654 0.6205716 0.316382 0.0835401 0.3455159 -0.47727314 -0.37640876 -0.6029961 -0.07889943 0.04413198 0.17080979 -0.30726245 0.3664007
6460 0.8878635 0.52064544 -0.7591664 0.27444014 -0.15780148 -0.4753596 -0.2652131 -0.17338862 0.83099616 0.04766123 -0.56021476 0.727102 -0.73362374 0.85526454 -0.48737848 0.317785 0.20898534 0.054233644 -0.5827206 0.2786917 0.09682871 -0.31091633 0.98156726 0.005348254 -0.235584 0.64076614 0.787788 -0.36704332 -0.29038188 0.6256339 -0.33080095 -0.14463621
4508 0.8975892 -0.04481232 -0.092584714 0.09754149 0.10006592 -0.07409237 -0.08136198 -0.04167391 0.64545393 0.29879093 -0.75255036 0.3434854 -0.12119907 -0.09658524 -0.9811895 0.86743057 0.6763643 -0.29724416 -0.308272 0.52467746 -0.030425165 -0.3947753 0.42251158 0.25099194 -0.06263277 0.19995436 0.29343233 -0.39595512 0.33731958 -0.3034108 -0.015409795 -0.09025185
6289 1.2242602 -1.1060799 -0.604541 0.3687878 -0.13988414 -0.976009 0.4534458 0.034537442 0.72578746 0.66919106 -0.52523416 -0.2846306 0.04507486 0.33236712 -0.060226187 0.022221424 -0.9512512 0.6494292 0.0010745501 -0.022469437 0.85255986 0.44471273 0.5204466 0.7465384 -0.5474513 -0.13861243 -0.40856266 -0.120267086 0.10306305 -0.20723008 -0.20860893 0.123333015
7646 0.6585201 -0.5561755 0.17934012 0.02426988 -0.29947862 -1.0006138 -0.18521918 0.34925976 1.1037943 0.84127355 -0.21671437 -0.0011825287 -0.5601973 -0.078790635 -0.10257132 -0.409646 0.12196321 0.87897193 0.010191763 -0.57877606 0.28284085 -0.22068146 -0.51530266 0.35229996 -0.55746204 -0.15237968 0.2066114 0.30933124 0.21016438 -0.1764407 -0.76751244 0.25963986
1190 0.8863072 0.07993686 -0.37777963 0.1092819 -0.14507392 0.050148427 0.04395084 -0.03477377 0.7819026 0.42108116 -0.3205051 0.7489714 -0.56973046 0.47414103 -0.4670725 0.57177466 0.29718927 0.16266757 -0.24492623 0.6452469 0.10923837 0.14205801 1.1320952 0.11448282 -0.24804258 0.50741494 1.0411867 -0.2459302 0.12645422 0.17017707 -0.47272885 -0.22332881
5081 0.35039252 -0.26921135 0.14437689 -0.20433453 -0.47274438 -0.045863494 -0.4007032 -0.058761448 1.3331228 1.0798254 -0.76198834 -0.0142733585 -0.49984232 0.13099653 -0.5929547 -0.6340684 0.23163624 0.5903426 0.17645755 -0.5529111 0.22816545 -0.2583055 -0.43908784 -0.088594854 -0.5540958 -0.048315942 -0.15937318 0.18308915 0.6606623 -0.2360582 -0.7106332 0.061332237
210 0.36077315 -0.47303787 -0.2958775 -0.16940774 -0.7677432 0.06263801 0.15469956 -0.35188264 0.07930271 0.12408779 -1.0853479 0.4189433 -0.095823444 -0.74778694 -1.2561845 -0.1563331 -0.012641616 0.621613 0.09597643 -0.35425347 0.041556377 -1.0469974 0.06986107 0.3135935 0.10641335 0.6055728 0.060073327 0.32598308 -0.067112446 -0.10379074 -0.21922323 0.40282577
2164 0.074358106 -0.50028723 -0.405206 -0.13446204 -0.782394 -0.15906584 0.37675738 -0.3086121 0.06614666 0.04870652 -1.085652 0.4398347 0.038400643 -0.83029765 -1.0655798 -0.06976893 -0.28039792 0.4908627 0.009261586 -0.47350234 0.08532039 -1.0006031 0.39699253 0.39735404 -0.026412658 0.44531745 -0.17392701 0.3384433 -0.26642442 0.044144206 -0.3358459 0.42512533
48 0.6915514 -0.42342827 -0.027646665 -0.7401099 -0.8381894 -0.9012354 -1.1622314 0.33456704 0.5394798 0.18209985 -1.3519257 0.7770886 0.3468756 0.11844666 0.16805512 -0.07758899 -0.6364183 0.40780452 1.1327536 -1.0212911 0.39896977 0.5273579 1.4708209 0.34996885 0.41692823 0.31329757 0.9814828 0.11516809 0.003931112 0.7969304 -0.13761492 0.58604807
5371 0.3017458 -0.4831357 -0.39683196 -0.33410925 -0.60210556 -0.30558538 0.04593389 -0.22794145 -0.07399745 0.071127236 -1.1917366 0.29596582 -0.12511855 -0.7941003 -1.3590232 0.21894486 0.07166306 0.4360254 -0.10210671 -0.4259656 0.10827377 -0.80851865 -0.0057085208 0.24188794 0.31322542 0.34975913 0.1865052 0.4491055 -0.20044145 -0.5170793 -0.5994131 0.2305458
4310 0.81651056 -0.78141886 0.27754712 -0.12425154 -0.18085839 -0.69629514 -0.2500552 0.66659683 1.1593919 0.854409 -0.18061616 0.09831591 -0.75895774 -0.14902759 -0.2271079 -0.37162682 -0.11576167 0.59054834 0.18197133 -0.7247248 0.16602099 -0.3308569 -0.34578204 0.2901749 -0.55239123 -0.09546953 0.19699614 0.41286433 0.16637751 -0.09301687 -0.7472535 0.07466823
4652 0.15049216 -0.35218948 -0.24760506 -0.17648005 -0.90383506 -0.45114252 0.31855643 -0.44225922 -0.42030382 0.2943805 -1.1093757 0.2684456 0.07592795 -0.41647384 -0.98990655 0.18499722 -0.04578272 0.84964806 -0.25502738 -0.82261246 0.54461646 -1.0823052 0.7212757 -0.026242368 0.23412283 0.7634504 0.26844612 0.20027371 -0.117090605 -0.62392616 0.03586631 0.67459327
4526 0.62938774 0.008668459 0.37044343 0.0447285 -0.27280918 -0.17003323 0.1629553 -0.18571383 0.5834336 0.48041028 -0.84924316 0.87695867 -0.4289194 0.16679841 -0.24737838 0.3735534 0.6174371 -0.1688387 -0.58849376 0.633991 0.06522991 0.060245164 0.6768927 0.32239702 0.23822239 -0.015847335 0.9181677 -0.4011231 0.44899154 -0.018124336 -0.45800924 -0.3022763
7941 0.6993351 -0.40959567 0.3048912 0.0374681 -0.3944028 -0.6278206 -0.32791933 0.33033094 1.1327717 0.9362804 -0.5186149 -0.0555038 -0.6397447 -0.0084452825 -0.3916899 -0.606162 0.17903548 0.6095753 -0.037343852 -0.4487087 0.4859276 -0.279975 -0.4974299 0.034936912 -0.39127624 -0.2604971 -0.0663092 0.37488163 0.16918959 -0.124693505 -0.62023765 0.2694608
649 0.15042308 -0.26855946 -0.14321713 -0.3164871 -0.49304038 -0.08728134 0.25032818 -0.37180248 0.092992626 -0.08229203 -1.2213 0.35802954 -0.30142942 -0.93876195 -1.4203635 -0.037808727 0.2337678 0.61764854 -0.22336012 -0.6894341 0.05335157 -0.6677626 0.028953562 0.23596606 -0.08758953 0.087824576 0.37460408 0.35187945 -0.117100485 -0.07482936 -0.60128266 0.48607698
